//Numpy array shape [8, 22]
//Min -0.210751548409
//Max 0.209906950593
//Number of zeros 0

#pragma once

model_default_t w2[176] = {-0.0247336328, -0.1232229918, -0.0363567807, -0.1020132378, 0.0784285665, 0.1124731973, -0.1154656708, -0.1100261137, -0.1797749847, -0.1122806519, 0.0100262389, 0.2012398541, -0.1876425296, 0.1424572617, -0.1017391607, 0.1120895222, -0.2021436542, 0.1507386267, -0.1404119581, -0.1106266305, 0.1094148755, -0.1039913818, -0.2107515484, 0.0775454044, -0.1570317149, 0.0781690776, 0.1220802292, -0.1848769635, -0.0181300249, 0.0645491332, -0.0058709057, 0.0745575279, -0.0705971122, 0.0526341908, 0.1074076071, -0.1956148148, -0.0844255611, -0.1741126329, 0.0998674631, 0.1278023571, 0.1160060540, 0.0410036482, -0.0499873459, 0.0154419020, -0.1428279579, -0.0175094027, 0.1628187448, -0.1396109015, -0.0265174471, 0.0057985475, 0.0663983375, 0.0390422344, 0.0405233726, 0.1445853114, 0.1265555024, -0.0157225654, -0.0405737460, 0.0252971966, 0.0376178473, -0.1763556302, 0.2070291936, 0.0607022941, -0.1028015316, 0.1026975513, -0.1403107047, 0.1545207649, -0.1108909771, 0.1093307734, 0.0002164130, -0.2077261209, 0.1792134792, 0.1334932148, -0.0991410613, -0.1492403895, -0.0834460929, -0.0052309940, 0.0928294733, 0.0204932094, -0.0741315410, -0.0446888991, 0.0826594383, -0.1171726510, 0.1241795048, 0.0739780292, 0.0156047391, 0.1252664030, 0.1321824342, 0.0801396146, 0.0890144333, 0.0757382363, 0.1946710348, 0.0396163687, 0.0578088388, 0.1379864812, 0.0524453782, 0.1529986262, 0.2042802572, 0.1067700088, -0.0701017827, 0.0437394492, 0.0153489830, 0.1285042018, -0.0451475196, -0.1656444967, 0.2099069506, 0.0277263597, -0.0987742394, -0.1623965651, -0.1364021450, -0.0317409188, -0.1148939952, 0.0914403945, 0.1805607975, -0.1307095587, -0.0558459237, 0.0996304080, 0.0442506596, 0.1380746365, 0.0599081106, 0.2022029161, -0.0985966101, 0.1498438269, -0.0479335934, 0.2032319903, -0.1061145961, 0.0723277032, 0.1771639436, 0.0401735269, -0.1798360050, 0.1915888786, 0.1780500263, -0.0142544387, -0.0572318062, -0.1618663073, -0.1239973977, -0.0517816804, -0.0372518636, 0.1592112929, 0.0046308325, 0.0857151672, -0.0347761139, 0.0501739196, 0.0374345742, 0.0453816466, 0.1746960431, -0.0097060548, 0.1231859103, 0.0855726078, 0.1770820618, 0.1989620924, -0.1442141682, -0.1920243204, -0.1143205240, 0.1542467326, -0.0649907812, 0.0579658039, 0.0490656272, 0.0304957610, 0.1009611189, -0.1448604614, 0.1577926278, 0.0661181584, 0.1016454771, -0.1391794831, -0.1456960887, -0.0223475751, 0.1574624032, 0.0300047584, -0.1075298041, -0.2075297832, -0.0161279682, -0.0846870318, -0.1064655781, 0.0704027340, -0.0861311927, 0.1588902771};

