//Numpy array shape [8, 8]
//Min -0.352079004049
//Max 0.349357426167
//Number of zeros 0

#pragma once

model_default_t w4[64] = {0.2805899978, -0.2786662281, -0.0593411177, -0.3499473035, 0.3226022124, 0.3456423879, -0.0603880025, 0.3143144250, -0.3392656446, -0.2405766547, 0.0357939675, 0.2301762849, 0.1661007255, 0.0025225731, 0.1673481464, 0.1096409783, 0.0927374810, -0.1543472707, -0.3520790040, 0.1310422570, -0.1557227373, 0.2559654415, -0.2724481821, 0.3493574262, 0.1101556793, -0.2307000905, -0.0019767294, -0.1392220408, 0.1159042493, -0.1721128076, 0.0082579581, 0.0936580077, -0.0157331228, -0.2727755308, -0.0041958028, 0.0414563566, -0.1774053574, 0.3041253686, 0.3301936686, -0.2438308150, 0.1885913014, -0.2417668402, 0.0180684794, 0.1168070361, -0.1492800862, -0.0443718657, 0.1407130659, 0.3130023777, 0.1130937710, 0.1464568824, -0.1224918440, -0.0139158359, -0.0270287730, -0.3078485429, -0.2019337267, -0.3397610486, 0.0085134106, -0.2634355426, 0.1714288890, 0.2803452909, 0.0497956164, 0.0038080520, -0.0301666055, 0.2634221017};

