#ifndef W1_H_
#define W1_H_
dense_edge_1_weight_t w1[160] = {0.24941319, 0.15990806, -0.21755703, 0.19358438, 0.25755256, -0.19105741, -0.1445423, -0.3525447, -0.4422913, -0.33094764, -0.02745241, -0.28212214, 0.08290148, -0.26467773, -0.056477875, -0.4413002, 0.112635136, -0.03664604, 0.037415087, 0.0667575, -0.19742355, 0.24008697, -0.30549097, 0.2454871, 0.22299284, 0.0006067131, -0.057589892, 0.21522039, 0.4625413, 0.3433861, 0.30635518, 0.36082426, -0.29552257, -0.11041349, -0.075469166, 0.31016392, -0.34509507, 0.41983062, 0.4013363, -0.33465683, 0.29348972, 0.44524595, -0.36503312, -0.18524806, -0.30402815, 0.057310756, 0.109120905, -0.37975422, -0.06149179, 0.18189217, 0.29882702, -0.097609535, 0.3242029, -0.24375251, 0.42955554, 0.44902036, -0.3943295, 0.36408603, 0.25976235, -0.22379163, -0.040357232, -0.27764136, 0.17547601, -0.3750964, 0.03928846, -0.18382256, 0.5042642, 0.10026793, -0.40261617, 0.21026869, -0.079614386, -0.13942344, -0.37515995, 0.22870876, -0.35827464, -0.37082162, 0.46303257, 0.3841776, -0.030596053, -0.33980447, 0.20427203, -0.37453184, -0.3141396, 0.30477753, 0.012814506, -0.44228497, 0.08597918, -0.17127442, 0.1882574, 0.09503722, -0.44967812, -0.0799911, -0.42698988, -0.053378016, 0.0834651, -0.12603122, 0.30314976, 0.2760566, 0.26404864, 0.14972585, 0.20705426, 0.32847315, 0.34077024, 0.42295432, 0.48357075, 0.08173011, 0.26272368, -0.31844229, -0.012817377, 0.31381908, -0.15305074, -0.22550343, 0.36932194, 0.3731377, 0.0019211471, -0.40524065, 0.40776658, -0.22422923, 0.0837993, 0.21679693, -0.15298091, 0.4435229, 0.056908067, 0.22559462, -0.31170586, 0.09733557, -0.45949414, -0.4212506, 0.13003933, 0.14599013, 0.16011658, 0.23760928, 0.33979014, 0.40848547, -0.4296981, -0.21714485, -0.08572066, 0.28871465, 0.23159254, -0.35920054, 0.2353611, 0.16311938, -0.4519532, -0.45039958, 0.055639286, 0.47771806, 0.023159267, -0.26722667, 0.46436468, 0.29359818, -0.28774863, 0.07800949, -0.68040264, -0.47546464, 0.1155824, -0.31247818, -0.5669084, -0.17387773, -0.21433009, -0.2724965};
#endif
