//Numpy array shape [20, 8]
//Min -0.468898564577
//Max 0.518725335598
//Number of zeros 120

#ifndef W1_H_
#define W1_H_

dense_edge_1_weight_t w1[160] = {-0.4035966098308563, -0.7112094163894653, 0.30248382687568665, 0.5414679050445557, -0.6081319451332092, -0.14719167351722717, 0.5532865524291992, -0.17012618482112885, -0.34383541345596313, -0.07561727613210678, -0.3474505543708801, -0.28784990310668945, -0.32882726192474365, 0.5545939803123474, -0.4403579831123352, 0.07631157338619232, -0.41415488719940186, -0.35019025206565857, 0.27800270915031433, 0.34666958451271057, -0.6402090191841125, -0.3741004168987274, -0.15913552045822144, 0.5202186107635498, 0.19985078275203705, -0.6308817863464355, 0.2387431561946869, -0.28057077527046204, -0.37091854214668274, 0.11714237183332443, 0.11728882789611816, 0.4458354413509369, -0.22662438452243805, 0.12378260493278503, 0.29272663593292236, -0.3992602527141571, 0.14653116464614868, 0.4086027145385742, 0.1287470906972885, -0.17755331099033356, 0.42196863889694214, 0.25962576270103455, -0.23074540495872498, 0.19924208521842957, -0.3049517571926117, -0.16099585592746735, -0.011615666560828686, -0.15924029052257538, -0.4918789267539978, -0.48904138803482056, -0.13227181136608124, -0.21271853148937225, -0.28063786029815674, 0.08681654185056686, 0.27809107303619385, -0.1791069209575653, -0.1161305159330368, 0.3524107038974762, 0.27402931451797485, 0.18274326622486115, -0.35381925106048584, -0.01698358729481697, -0.4444308578968048, -0.4563141167163849, 0.1411447674036026, 0.3818792998790741, -0.18417046964168549, -0.37868353724479675, -0.6816232204437256, 0.13759051263332367, 0.26123669743537903, 0.05010385066270828, -0.6008689999580383, 0.631615400314331, -0.45826318860054016, 0.1950586438179016, 0.23527748882770538, 0.08590361475944519, -0.4292961061000824, -0.02783890999853611, -0.38130781054496765, 0.12875553965568542, -0.2604663074016571, -0.2807454466819763, -0.672027587890625, 0.3626381754875183, 0.2900709807872772, 0.41411226987838745, 0.5504660606384277, -0.29811641573905945, -0.44754236936569214, 0.2629634737968445, 0.003049243474379182, 0.01108042523264885, -0.11658520251512527, 0.45347824692726135, -0.0020539064425975084, -0.6008439064025879, 0.4344712197780609, 0.11597932130098343, -0.371792197227478, -0.17365393042564392, -0.041806697845458984, -0.21822252869606018, -0.16284266114234924, -0.03555436059832573, 0.0590045228600502, -0.3497697114944458, 0.06499176472425461, 0.23169879615306854, 0.3690498173236847, -0.023390280082821846, 0.06832493096590042, 0.15281075239181519, -0.2990333139896393, 0.0861322358250618, 0.052807196974754333, -0.1445920616388321, 0.2576463222503662, 0.5711126923561096, -0.21624650061130524, 0.18594439327716827, 0.17918424308300018, -0.3306942880153656, 0.4118153154850006, 0.32145315408706665, -0.004368904512375593, -0.09902380406856537, -0.2577526569366455, -0.26142188906669617, -0.05501515790820122, 0.41255077719688416, -0.21028423309326172, 0.1884407252073288, -0.07553303241729736, -0.2549222409725189, -0.33633527159690857, 0.02565591409802437, 0.32160109281539917, 0.08945795893669128, -0.298644095659256, -0.1269567757844925, 0.30805546045303345, 0.09594996273517609, -0.15699529647827148, -0.15512613952159882, 0.17830711603164673, -0.32055434584617615, 0.6458950638771057, 0.24312251806259155, 0.43509912490844727, 0.1950942575931549, 0.5066136717796326, -0.6139138340950012, -0.24526020884513855, -0.30623385310173035, -0.001554087270051241, -0.12641458213329315, -0.5728753209114075, 0.14598281681537628};

#endif
