//Numpy array shape [8, 22]
//Min -0.209309861064
//Max 0.212780222297
//Number of zeros 0

#pragma once

model_default_t w2[176] = {-0.0503241010, -0.1376751661, 0.1050940305, -0.1399188638, -0.1680661589, -0.1293148547, 0.1394813955, -0.0758269057, 0.1805154830, 0.0942239463, 0.0028602865, -0.1560025662, 0.0572847724, -0.1529082209, -0.1247539669, -0.0436557308, -0.0137862852, -0.1273908466, 0.1581464112, -0.0309271123, -0.0606964231, -0.1012388542, 0.0904685035, -0.1267724633, -0.1557900310, 0.1482060254, -0.0120773464, 0.0997181460, 0.0638493672, -0.2093098611, -0.0532205291, 0.0968567133, 0.0198926907, 0.1612889916, 0.1221137270, -0.1681066453, 0.0024395327, -0.1596418917, 0.1682035625, 0.1984760165, -0.0084977252, 0.1403551996, -0.1300501525, 0.0869449228, -0.0062914304, 0.1162741333, -0.1069845110, -0.0650132746, -0.1877288222, 0.0512795970, 0.1158938706, -0.1813060939, -0.0159375053, 0.0249829087, 0.1002824455, -0.1354872137, -0.0407640338, 0.2021674663, 0.2100033164, 0.0373880640, 0.0826565102, -0.1137541905, 0.2127802223, 0.1403909624, -0.0487852916, 0.1610485017, 0.0507418029, 0.0426711589, -0.0713742152, -0.0318361744, 0.0394324884, 0.1023087204, -0.0751299411, -0.1265353858, 0.2021559775, 0.0456439108, 0.1025303230, 0.1403802931, 0.0317668915, -0.1027452573, -0.0293346029, 0.1796480566, -0.1644080877, -0.0243462510, -0.2084662914, -0.0271743871, -0.1277734339, -0.0357264243, 0.1336691231, -0.1164565682, 0.0757540166, -0.0466071591, 0.1224295422, -0.1825448722, -0.0980699733, 0.0480273776, -0.1111972854, -0.0031351044, 0.0507370010, -0.0558861569, -0.1094142646, 0.0367529839, 0.0758508220, 0.0052833245, -0.0392332822, -0.0518812314, -0.1136914864, 0.0121598197, 0.1369729787, -0.0321179554, -0.0539527237, 0.1256427765, -0.0281767230, 0.0043113595, 0.1360066533, 0.0384276100, 0.1407962292, 0.1143537387, -0.0504241101, 0.1166120619, -0.1026277617, 0.0611778945, 0.0074548000, 0.1437841058, -0.1120254546, 0.1543093324, 0.0627385601, 0.2008381635, 0.1365298331, 0.2008701563, 0.0480470732, -0.0825575441, -0.0572902858, -0.0595453531, -0.1392678767, -0.0912832990, -0.1776638627, 0.0637304485, 0.0638897792, 0.1113269031, 0.0526155122, 0.1634275764, -0.2083105445, 0.1529972106, 0.1070737988, 0.0692472905, -0.0792908370, 0.1862010658, 0.0405158252, -0.0376009718, -0.0670129135, -0.1430721134, -0.0248194616, 0.0204353891, 0.1103454381, 0.0178673808, 0.1663044095, 0.1046631411, 0.0979306251, -0.1526668519, 0.1280945390, 0.1562262177, 0.0017382682, 0.0725973845, 0.1686458290, -0.0549906902, 0.1148634478, 0.2002687454, -0.2057846040, 0.0909416080, -0.1353028268, -0.0329553224, 0.1450741291, 0.0453614928, -0.0574152544, 0.0203251615};

