//Numpy array shape [8, 22]
//Min -4.474847316742
//Max 2.145500659943
//Number of zeros 0

#pragma once

model_default_t w2[176] = {0.0955391601, 0.0132244835, 0.0414760001, 0.0477164984, -0.0976103544, 0.0420472622, 0.0493332148, 0.1865656227, -0.1081350669, -0.0835793838, 0.0370960124, 0.0096251341, -0.0522050485, -0.1165693924, -0.2992043793, -0.0666199848, -0.1892375499, 0.0106009077, -0.1939943433, -0.2935442328, 0.2697210014, 0.0743047819, -0.5345683098, -0.2766932845, -0.1363671273, 0.0638403594, -0.2557915151, -0.3646430373, 0.3466190398, 0.2115901560, -0.5746909976, -0.2976231575, -0.3240945041, -0.0061877156, -0.2952443063, -0.3687789142, 0.4098530710, 0.1291004568, -0.9253448248, -0.3837167621, 0.1182573959, -0.0694980249, 0.2195005715, 0.3635070622, -0.3300751150, -0.2374909818, 0.2573755085, 0.3084337711, -0.2517578304, -0.1222518384, -0.0229116604, 0.0582425483, 0.0814770460, -0.1213350296, -0.6197906137, -0.0631078109, 0.1951577216, 0.0518547110, 0.0986522883, 0.1758937836, -0.1526778936, -4.4748473167, 0.5195146799, 0.2234178782, 0.6154838204, 0.0515413955, 1.2063868046, -0.7762987614, 0.0717249885, 0.1320900917, 0.0862660408, -0.8509793282, 1.3046878576, -0.0057319859, -0.9844712615, -1.3733718395, -0.0070659639, -1.2113078833, -0.4132044315, 1.2700706720, -0.5521391034, 2.1455006599, -0.7771035433, -0.1719182134, 1.2905216217, 0.1697666943, 1.1712920666, -0.0633218065, 0.0424120054, -0.0131520657, 0.0227597654, -0.0319257788, 0.0269727949, 0.2020384520, 0.0248058606, -0.0760417432, 0.0526898615, -0.0647099167, 0.0477944650, 0.1098504215, -0.3076145351, -0.2297039479, -0.2500403821, 0.0692520291, 0.1899118125, -0.1019520536, 0.3087285459, 0.3561766744, -0.3958265483, -0.2679194808, 0.0356983580, 0.2813219726, 0.0863583535, -0.2424821407, 0.2422264218, 0.2120397389, -0.2988146245, -0.0375660323, 0.2047955990, 0.2060797662, 0.2311148942, 0.0105208121, 0.2466964275, 0.3193937242, -0.3432788253, -0.1944313049, 0.1621160507, 0.2559544146, 0.1128692478, 0.5520341992, -0.0993284211, 0.0229305550, 0.2597903609, -0.1570010781, -0.1500612944, -0.0264447145, -0.0335317440, 0.2951807678, -0.3265457153, -0.2422468215, 0.3741708994, 0.0673804283, 0.0344889648, -0.2153537124, -0.1481462568, 0.0663120598, -0.1933573037, -0.3173700571, 0.4970363379, 1.2223365307, 0.1035024449, -0.2543154359, -0.5902166367, -0.0546186082, -1.1768333912, 0.7044686675, -0.0563117899, -0.1164818853, -0.1267028004, 0.7785151005, -1.3048278093, 0.0010097232, 0.9791064262, 1.3714700937, 0.0046152649, 1.2099448442, 0.4131659865, -1.2675132751, 0.7276444435, -2.1133713722, 0.8127843738, 0.2550377548, -1.3664085865, 0.0403777175, -0.0074722297, 0.2787190974};

