//Numpy array shape [8, 8]
//Min -0.640770375729
//Max 0.594365656376
//Number of zeros 48

#ifndef W2_H_
#define W2_H_

dense_edge_2_weight_t w2[64] = {-1.0021830797195435, -0.020425517112016678, -0.7548590302467346, 0.1396006941795349, -0.42585867643356323, -0.6098458170890808, -0.9259523749351501, 0.40822869539260864, -0.6024534106254578, 0.907805860042572, -0.6547829508781433, 0.8610126972198486, 0.6661390066146851, 0.7416831851005554, -0.5898993015289307, 0.7263994812965393, 0.17719760537147522, 0.2764919698238373, 0.5219955444335938, -0.22271540760993958, -0.3619652986526489, 0.7247545123100281, 0.6384150981903076, 0.30645447969436646, -0.2301642894744873, -0.6077439188957214, 0.3904702067375183, 0.4381311237812042, 0.05773501098155975, -0.09681400656700134, 0.4756334722042084, -0.4981006383895874, 0.06710615754127502, 0.4264602065086365, -0.38383913040161133, 0.33566850423812866, -0.16672593355178833, 0.7964675426483154, -0.2781915068626404, 0.3029539883136749, 0.42461422085762024, 0.9328628778457642, 0.1315540224313736, -0.009028015658259392, 0.8319717049598694, 0.6505963802337646, 0.5628824830055237, 0.06379377096891403, 0.4776800870895386, 0.1356603056192398, -0.14527857303619385, 0.19335632026195526, 0.011680617928504944, -0.5600199699401855, 0.7602975368499756, 0.20222893357276917, 0.4944731295108795, 0.4853473901748657, 0.4056397080421448, 0.07743959873914719, 0.844973087310791, -0.6600257754325867, 0.27163010835647583, 0.36243727803230286};


#endif
