//Numpy array shape [20, 8]
//Min -0.468898564577
//Max 0.518725335598
//Number of zeros 120

#ifndef W2_H_
#define W2_H_

#ifndef __SYNTHESIS__
dense_edge_1_weight_t w2[160];
#else
dense_edge_1_weight_t w2[160] = {-0.0000000000, 0.4087990820, -0.4161463380, -0.3977699578, 0.0000000000, -0.0000000000, -0.0000000000, -0.0000000000, -0.0000000000, 0.0000000000, 0.0000000000, 0.0000000000, 0.0000000000, -0.0000000000, -0.0000000000, 0.3713348806, -0.0000000000, 0.0000000000, 0.0000000000, 0.0000000000, 0.0000000000, -0.0000000000, -0.0000000000, -0.0000000000, -0.4480489790, -0.0000000000, -0.0000000000, -0.0000000000, 0.0000000000, 0.0000000000, -0.4688985646, -0.0000000000, -0.4658284485, 0.0000000000, -0.0000000000, -0.0000000000, 0.3922740817, 0.0000000000, -0.0000000000, -0.0000000000, -0.0000000000, -0.0000000000, -0.0000000000, 0.0000000000, 0.0000000000, 0.0000000000, -0.0000000000, -0.0000000000, 0.3545986414, 0.4002731442, 0.3972291946, 0.0000000000, -0.3831250966, 0.3955567777, -0.0000000000, -0.0000000000, -0.0000000000, -0.4287360013, 0.5187253356, 0.0000000000, 0.0000000000, 0.0000000000, -0.0000000000, -0.0000000000, -0.0000000000, -0.0000000000, 0.0000000000, 0.0000000000, 0.0000000000, 0.3400857747, -0.0000000000, -0.0000000000, -0.0000000000, 0.0000000000, -0.0000000000, -0.3771222532, 0.3743531406, 0.3857008517, -0.0000000000, -0.0000000000, -0.0000000000, -0.0000000000, 0.0000000000, 0.0000000000, -0.0000000000, -0.0000000000, -0.0000000000, -0.0000000000, -0.0000000000, -0.0000000000, 0.0000000000, -0.0000000000, -0.3777272403, 0.4024962485, -0.0000000000, -0.0000000000, -0.0000000000, 0.0000000000, 0.0000000000, 0.0000000000, 0.4279973507, -0.0000000000, -0.4404352009, -0.0000000000, -0.0000000000, -0.4303778410, -0.0000000000, -0.4185571671, -0.3606030643, 0.0000000000, 0.3602479398, 0.3579965532, -0.0000000000, -0.0000000000, 0.0000000000, 0.3686195314, 0.0000000000, -0.0000000000, -0.0000000000, -0.0000000000, -0.4220968783, 0.4423806071, 0.0000000000, 0.0000000000, -0.4640617669, -0.0000000000, -0.0000000000, 0.3737912774, -0.0000000000, 0.4525080621, -0.0000000000, -0.4427485466, 0.0000000000, 0.0000000000, -0.0000000000, -0.0000000000, -0.0000000000, -0.4196016788, 0.4877045155, 0.0000000000, 0.3995801210, 0.0000000000, -0.0000000000, -0.0000000000, -0.0000000000, 0.0000000000, 0.0000000000, 0.0000000000, 0.0000000000, -0.0000000000, -0.0000000000, -0.0000000000, -0.0000000000, -0.3813739717, 0.0000000000, 0.0000000000, 0.0000000000, -0.0000000000, -0.0000000000, 0.4078345299};
#endif

#endif
