//Numpy array shape [8, 22]
//Min -1.654228687286
//Max 1.460865497589
//Number of zeros 0

#pragma once

model_default_t w2[176] = {-0.0196317285, -0.0582670867, -0.0008032377, 0.1984243542, -0.0606882758, 0.0693079084, 0.1019887924, 0.0356673971, 0.0638432205, -0.0054157702, 0.0424108580, -0.0240548272, 0.0474932939, 0.0499614999, -0.1948129684, 0.0685976520, 0.3449474573, -0.0520798303, 0.2301695794, -0.0245565604, 0.1300504059, 0.3589255512, 0.2226778418, 0.2177235633, -0.3208850324, 0.0459534004, 0.0872281790, -0.3757832944, 0.1001942083, 0.2149130255, -0.0890380964, 0.0002349756, -0.1931871623, -0.0153755648, 0.0872219428, -0.1755724549, 0.0739084706, 0.0193428062, 0.0350828804, 0.1745271087, -0.4422471821, 0.0614199825, 0.0806565732, 0.1147691831, 0.0212467369, 0.0906237885, -0.0419578627, 0.0783458501, -0.0067768707, 0.0437416099, 0.0698911995, -0.0764507502, -0.2102516890, 0.7439302802, 0.5061675310, -0.0408243835, 0.0706697330, -0.0008349506, -0.0880837962, 0.0451736636, -0.0761965662, 0.0779542103, 0.1146893799, -0.1628698260, -0.2941141725, 1.0156068802, 1.3905156851, -1.6542286873, -0.4827803671, 0.5256865025, 0.6285107732, 1.4296274185, -0.3108494580, 0.7591394782, -0.0851022378, -0.0238609407, 0.0821079761, 0.5253264308, 0.3475702405, -0.0487995818, 0.1436222494, -0.2801803350, -0.6623454690, 0.7310595512, 0.9807480574, 0.0870872289, 0.1341986805, 0.1401711851, 0.3871042132, 0.0179716703, -0.0238774605, 0.0805467218, 0.0248127189, -0.1299501359, 0.0208587125, -0.0386696458, 0.1830161512, 0.0175758228, -0.0088356901, 0.1017035395, -0.0858585313, -0.1614138782, -0.3000527620, -0.0323298238, 0.1920463145, -0.0563664511, -0.1935940087, 0.0202200282, -0.2070028484, -0.6594140530, -0.4357244372, -0.2628514767, -0.2068584114, -0.0369739421, -0.0512045547, -0.1715979278, 0.0381448269, -0.0964023098, -0.2906302214, -0.0088676997, -0.1445772946, 0.0622224435, 0.0031691329, 0.0836875066, 0.0310974494, -0.1389783323, -0.0644654706, -0.0056151138, -0.7266150117, -0.1682380885, -0.2756278813, 0.0168591216, -0.3800399899, -0.0294831656, -0.2835646570, -0.3773327470, -0.1522591710, 0.0866617635, -0.1556554586, 0.0338023603, -0.2914715111, 0.3159924150, 0.4175502360, -0.2867933810, 0.0242236238, -0.0054709492, 0.0736153126, -0.0640290082, 0.1213465631, 0.3524737060, 0.3190824687, 0.1783893108, 0.2372961938, -0.9645300508, -1.1323617697, 1.4608654976, 0.5719624162, -0.3773220778, -0.3357927501, -1.5935671329, 0.2364855856, -0.7625338435, 0.0858441442, 0.0231070220, -0.0810337141, -0.5248028040, -0.3551535904, 0.0454737507, -0.1770482510, 0.2681581378, 0.5541755557, -0.6798539758, -1.0380755663, -0.0047288551, -0.2036738992, -0.1225131303};

