//Numpy array shape [8, 22]
//Min -1.753357529640
//Max 1.567594766617
//Number of zeros 0

#pragma once

model_default_t w2[176] = {-1.0456746817, -0.5715795159, -0.0715549886, 0.4746907055, -0.6249862909, -0.1477911323, -0.7831314206, 0.7408760190, 0.3314888179, -0.0344983041, 0.4834807515, 0.1181248203, 0.4872827232, -0.0481983460, 0.0476324558, -0.5444570184, 0.0369434990, -0.1144010425, 0.0243028924, 0.4925169051, -0.0440509543, 0.1391975731, -0.1854595989, 0.4501877427, -0.0815870836, -0.0404782556, 0.1953427196, 0.1917324662, 0.2983944416, -0.0752491057, -0.4987703860, 0.1409022212, 0.8209315538, 0.3773650527, 0.5721620321, -0.2027078867, 0.6965382695, -0.1797211766, -0.1435281932, -0.6887261868, 0.2899662256, 0.0633619949, 0.1804224849, 0.2808939815, 0.4656261504, -0.0617054030, 0.0911544338, -0.2010707855, -0.0804566517, -0.1505127847, -0.1430388242, 0.6166139841, -0.2338098139, -0.1606480628, -0.2387960553, 0.5386477113, -0.9331036806, -0.4515723884, -0.2103947699, 0.6033656597, -0.3235458732, 0.1290670037, -0.8593255877, 0.6808137298, 1.5675947666, 0.0055043888, -0.6579561234, 0.0549512096, 0.3734461069, 0.0033625120, 0.0093174074, 0.1215804443, 0.0753668621, -0.0901573598, 0.1006452069, 0.1167140007, 0.2754949033, 0.0126764234, 0.0804242641, -0.1222828850, -0.4837219715, 0.6115659475, -0.0778051689, -0.0121845454, 0.1105196103, 0.1659186780, 0.6155464649, -0.1404420733, 1.0085628033, -0.2161057889, 0.6671967506, -0.0795063004, -0.0396400727, -0.0946654230, 0.0391378850, -0.4294991791, -0.2100158781, -0.5419966578, 0.3674979806, 0.2481469959, -0.0692167804, -0.0706802830, -0.4207772017, 0.0950416550, -0.0433182307, -0.2282180339, 0.2428729236, 0.1766942888, 0.0748226121, -0.1632517725, 0.0645230263, 0.2322302759, 0.3609726131, 0.0282485299, 0.3290244043, 0.1819955111, 0.3988067806, 0.0409571491, -0.3458912671, -0.4654116929, -0.6506007910, 0.2272457778, -0.2123631537, 0.3254742920, -0.0866894200, 0.1343399137, 0.0469476506, 0.3178984821, -0.0438587666, 0.3065232933, 0.5408099890, 0.2552224994, 0.3447418511, -0.0796264112, 0.1900592297, -0.3412245512, 0.0722585097, -0.2832084298, -0.2018534988, 0.2440553904, -0.3705284297, -0.2330111712, -0.3093935549, 0.4403814971, 0.6846265197, -0.1127469018, 0.6050037146, -0.0880209953, 0.4767216444, -0.2139908969, -0.3397906721, -0.6331592798, -1.7533575296, 0.6087288260, -1.0189000368, 0.4098871350, 0.0884960070, -0.0109334821, 0.8752771616, -0.0605720170, -0.0684495866, -0.0389081128, -0.0265831165, 0.3198346496, 0.3399368227, -0.2122078240, -0.0488187671, 0.1740672290, 0.5948922634, -0.7737878561, 0.4275745749, -0.1461960077, 0.4497494698, -0.0381719060, -0.6561430097, 0.1893206835};

