//Numpy array shape [8, 8]
//Min -0.596000909805
//Max 0.599711835384
//Number of zeros 48

#ifndef W3_H_
#define W3_H_

dense_edge_3_weight_t w3[64] = {-0.2852557599544525, 0.8610502481460571, 0.18874993920326233, 0.45950791239738464, -0.20051036775112152, -0.6711666584014893, -0.6165814995765686, 0.6050968766212463, 0.09982776641845703, -0.39764997363090515, 0.06309909373521805, 0.203886941075325, -0.04042136296629906, 0.23112794756889343, 0.5886706113815308, 0.13303115963935852, -0.19357317686080933, 0.7104960083961487, 0.44338253140449524, 0.06335550546646118, -0.31976038217544556, 0.0033912265207618475, -0.33245012164115906, 0.5816483497619629, 0.742040753364563, -0.36079755425453186, -0.8393938541412354, -0.286167174577713, 0.09645994007587433, 0.34700125455856323, 0.3279479146003723, 0.24938705563545227, 0.6522422432899475, 0.7726044058799744, 0.19273681938648224, -0.24857287108898163, 0.06444436311721802, 0.9387363791465759, 0.5151528716087341, -0.2806333601474762, 0.9123231768608093, -0.5752342343330383, 0.12644511461257935, -0.4750638008117676, -0.49734261631965637, 0.8109937906265259, 1.0231956243515015, -0.8062466979026794, -0.3504464328289032, -0.2617875933647156, 0.806219756603241, 0.5930643677711487, 0.04822401702404022, -0.27509045600891113, -0.3589465022087097, 0.8451192378997803, 0.24064132571220398, -0.37684425711631775, -0.3486901521682739, -0.07484898716211319, -0.20131249725818634, 0.5069844722747803, 0.46714457869529724, 0.06552533060312271};


#endif
