//Numpy array shape [8, 8]
//Min -0.352230340242
//Max 0.330059170723
//Number of zeros 0

#pragma once

model_default_t w4[64] = {0.1002576128, -0.3084925115, 0.0087499805, 0.2942824066, 0.2475178093, 0.2099279314, 0.2750204504, -0.2673730552, 0.2884004712, -0.0563574992, 0.0163920056, 0.2771539986, 0.0037466441, 0.1046376452, -0.0145652760, 0.2781414986, 0.3300591707, 0.0159943067, -0.1023643240, -0.1585405469, 0.2689531446, -0.1035210490, -0.3369071186, -0.2629075646, -0.0241742097, 0.0697275773, -0.1382371485, 0.0998043269, 0.0781071708, -0.2819221914, 0.1798913032, 0.2659043074, -0.0174517874, 0.1620278209, -0.2331738919, -0.1166230664, -0.1094366089, -0.2482905388, -0.1430622935, 0.2377839237, -0.0770980492, -0.0463301763, -0.0423491932, 0.1990046054, -0.1981029958, -0.3103167117, 0.1449618936, -0.1609650552, 0.1232829466, -0.3522303402, -0.3236398399, -0.1211542785, -0.0306482613, 0.0295239091, -0.2152227163, 0.0400752872, 0.1336993724, -0.0315986723, 0.2361525744, 0.1095804572, 0.1888805926, -0.0233497750, 0.2556690872, 0.0286415648};

