//Numpy array shape [8, 8]
//Min -0.640770375729
//Max 0.594365656376
//Number of zeros 48

#ifndef W4_H_
#define W4_H_

#ifndef __SYNTHESIS__
dense_edge_2_weight_t w4[64];
#else
dense_edge_2_weight_t w4[64] = {0.0000000000, -0.0000000000, 0.0000000000, -0.0000000000, 0.0000000000, -0.0000000000, -0.0000000000, 0.5161770582, -0.0000000000, 0.0000000000, 0.5943656564, -0.5588955879, -0.6407703757, -0.0000000000, 0.0000000000, 0.0000000000, 0.5755427480, 0.0000000000, -0.0000000000, -0.0000000000, 0.0000000000, -0.0000000000, -0.5400870442, -0.0000000000, -0.0000000000, -0.5815277100, -0.5355245471, -0.0000000000, -0.0000000000, 0.0000000000, 0.5629537106, 0.0000000000, -0.0000000000, -0.5379607081, 0.0000000000, -0.0000000000, 0.0000000000, -0.0000000000, 0.0000000000, -0.0000000000, -0.0000000000, -0.0000000000, -0.6103416085, -0.5645228624, 0.0000000000, -0.0000000000, 0.5334681273, -0.5793978572, 0.0000000000, -0.0000000000, 0.0000000000, -0.0000000000, 0.0000000000, -0.5666814446, -0.0000000000, -0.0000000000, 0.0000000000, 0.0000000000, 0.0000000000, -0.0000000000, 0.0000000000, 0.5476920605, -0.0000000000, -0.0000000000};
#endif

#endif
