//Numpy array shape [8, 8]
//Min -14.774080276489
//Max 7.837567329407
//Number of zeros 0

#pragma once

model_default_t w4[64] = {-2.5491247177, -0.0792684481, -10.7491149902, 0.6814317107, -1.9499620199, 0.1706656963, -0.3101650774, -6.2227640152, 4.3341207504, -13.3583974838, 1.5727921724, -13.4748897552, 7.8375673294, -13.4434938431, -14.7740802765, 1.9748500586, -3.2978148460, 0.2092536539, -10.3517045975, -1.1265931129, -3.2179398537, 0.3295992911, 1.0278576612, -5.4023900032, -1.9751836061, -0.1856576800, -6.3723301888, 1.4788964987, -1.4857738018, -0.1111904234, 0.0985056236, -4.0319781303, -3.2042610645, -1.8928573132, -0.3853747547, -13.0396928787, 0.1353569478, -3.6050159931, -8.2705106735, -0.6153386831, -1.5010840893, -8.5978498459, -0.8277615905, -0.6364206076, -0.7971813083, 0.0891637877, -0.6389498711, -1.1424571276, -2.3963532448, -1.1110938787, -1.5696041584, -0.8781505823, -2.0307962894, -0.3763919175, -0.7468784451, -3.2568726540, -2.8147888184, 0.0268086772, -9.0231237411, -0.6882008314, -2.1947863102, -0.0988355428, 0.4832345247, -5.1674981117};

