//Numpy array shape [8, 8]
//Min -2.036228418350
//Max 2.122728824615
//Number of zeros 0

#pragma once

model_default_t w4[64] = {0.8588826656, -0.8471231461, 1.4866843224, 0.2954542935, 1.8672649860, 2.1227288246, -2.0362284184, 0.1427903175, -0.9228945374, 0.3575661480, -0.8142350316, 0.0251971185, -1.1024528742, -0.9845907092, 0.5526910424, -0.3002355397, 0.0209887195, -0.3133358955, -0.4573245645, 0.0515406132, -1.2878490686, -0.8503465056, 0.6112898588, 0.2672377527, -0.2008299083, 0.0132224588, -0.1037531272, -0.1360831261, 0.6130813956, 0.2732089758, -0.0528990887, -0.1895043552, 0.0702007860, 0.3015128076, 0.1013070792, 0.1542442143, -0.1333721131, 0.0327554122, 0.4969831109, 0.0824935287, 0.2602273226, 0.2950890958, -0.0420832187, -0.1101230830, 0.1547047347, 0.1927879453, -0.2272524536, 0.0823667869, -0.0767570511, -1.1841877699, -0.6557646990, -0.9001226425, -1.1156417131, -1.3683769703, 0.5474211574, 0.2656773031, 0.0820253789, 0.3554416597, 0.8081695437, 0.2158061862, 0.6579506397, 0.1812749356, -1.1162850857, -0.2005065829};

