//Numpy array shape [8, 8]
//Min -2.570009231567
//Max 2.281908512115
//Number of zeros 0

#pragma once

model_default_t w4[64] = {0.5125296116, 0.0167327840, -0.4096246958, 0.7839475274, -0.2677901387, 0.4375304282, -0.6902789474, -1.5570639372, -2.5076274872, -1.8052417040, 0.5462360382, -1.6682772636, 0.4711040854, -1.5492595434, 0.5449856520, -0.0903536230, -1.3865913153, -1.9071214199, 0.6518803835, -1.0614770651, 0.3329503834, -1.8900011778, 0.5917869210, -0.0290827770, -1.4999790192, -2.2956693172, 1.6803740263, -1.3633602858, 1.3817002773, -2.5700092316, -0.4214221835, 1.4702359438, 1.6466253996, 1.5247486830, -1.4641351700, 2.2819085121, -1.1233749390, 1.7136459351, -1.0947099924, -0.3409936428, 0.3334270418, 0.4391154945, -0.4762257934, -0.8031765223, -0.4227095544, 0.4115333259, -0.3326597214, 0.1328611672, 0.1651276201, 0.1304298043, -0.0592467934, 1.6026113033, -0.0907505974, 0.0664669052, -0.0641998202, 0.2342526168, -1.6764698029, -1.7681647539, 1.0905284882, -1.0359416008, 0.7374513745, -1.9690290689, 1.0734287500, 0.0011016232};

