//Numpy array shape [8, 8]
//Min -0.599397718906
//Max 0.613583683968
//Number of zeros 48

#ifndef W10_H_
#define W10_H_

#ifndef __SYNTHESIS__
dense_node_out_weight_t w10[64];
#else
dense_node_out_weight_t w10[64] = {-0.0000000000, -0.0000000000, 0.0000000000, 0.0000000000, 0.0000000000, -0.5218186378, 0.0000000000, -0.0000000000, -0.0000000000, 0.5607861280, -0.0000000000, 0.5829569697, 0.0000000000, -0.5805616975, -0.5240024924, 0.0000000000, -0.0000000000, -0.0000000000, 0.0000000000, 0.0000000000, 0.0000000000, 0.0000000000, 0.0000000000, -0.5119607449, -0.0000000000, -0.0000000000, 0.0000000000, 0.0000000000, 0.0000000000, 0.0000000000, -0.0000000000, -0.5993977189, 0.0000000000, -0.0000000000, 0.0000000000, 0.0000000000, 0.0000000000, 0.0000000000, -0.5012683868, -0.0000000000, 0.0000000000, -0.0000000000, -0.5963816643, 0.0000000000, -0.5170373321, -0.4923835397, -0.0000000000, 0.0000000000, 0.6012634635, -0.0000000000, -0.0000000000, 0.0000000000, 0.0000000000, 0.6135836840, 0.5538095832, -0.0000000000, 0.0000000000, -0.0000000000, -0.4936733842, 0.0000000000, -0.4729053378, 0.0000000000, -0.0000000000, -0.0000000000};
#endif

#endif
