//Numpy array shape [8, 8]
//Min -0.615253269672
//Max 0.621558129787
//Number of zeros 48

#ifndef W6_H_
#define W6_H_

#ifndef __SYNTHESIS__
dense_node_3_weight_t w6[64];
#else
dense_node_3_weight_t w6[64] = {-0.0000000000, -0.0000000000, 0.0000000000, 0.0000000000, -0.0000000000, 0.0000000000, -0.0000000000, 0.0000000000, -0.0000000000, -0.0000000000, 0.5194618702, -0.0000000000, -0.0000000000, 0.0000000000, -0.0000000000, 0.0000000000, -0.0000000000, -0.6007128358, 0.6126722097, 0.0000000000, -0.0000000000, 0.6215581298, -0.0000000000, 0.0000000000, -0.0000000000, 0.5741546750, 0.0000000000, 0.0000000000, 0.0000000000, 0.0000000000, -0.0000000000, 0.0000000000, -0.0000000000, 0.5387306809, -0.0000000000, -0.0000000000, -0.5551450849, 0.0000000000, -0.0000000000, -0.0000000000, -0.0000000000, -0.0000000000, -0.6040291190, 0.5535309315, -0.0000000000, 0.5918980837, -0.6152532697, 0.0000000000, 0.0000000000, -0.0000000000, -0.0000000000, 0.0000000000, -0.0000000000, 0.0000000000, 0.5794496536, 0.5654721856, -0.6063005328, 0.5325996280, -0.0000000000, -0.0000000000, 0.5408217311, 0.0000000000, -0.0000000000, 0.0000000000};
#endif

#endif
