//Numpy array shape [8, 8]
//Min -0.618516862392
//Max 0.593285858631
//Number of zeros 48

#ifndef W8_H_
#define W8_H_

#ifndef __SYNTHESIS__
dense_node_4_weight_t w8[64];
#else
dense_node_4_weight_t w8[64] = {-0.0000000000, 0.0000000000, -0.0000000000, -0.0000000000, 0.0000000000, -0.0000000000, -0.0000000000, 0.0000000000, 0.0000000000, -0.0000000000, -0.0000000000, -0.0000000000, -0.0000000000, -0.0000000000, -0.0000000000, 0.0000000000, -0.0000000000, -0.0000000000, -0.0000000000, -0.0000000000, -0.0000000000, -0.6105812788, -0.0000000000, 0.0000000000, 0.0000000000, -0.6185168624, -0.0000000000, 0.4362857342, 0.4526910186, -0.0000000000, 0.0000000000, 0.4538062811, -0.0000000000, -0.0000000000, -0.0000000000, -0.0000000000, -0.4198729992, -0.5634094477, 0.0000000000, 0.0000000000, -0.0000000000, -0.4803043008, -0.5005222559, -0.0000000000, -0.0000000000, 0.0000000000, 0.0000000000, 0.4908803999, 0.5932858586, 0.5191301703, 0.4393515885, 0.0000000000, -0.0000000000, 0.4858969748, 0.0000000000, 0.0000000000, -0.6013163924, -0.0000000000, -0.0000000000, -0.4334277213, -0.0000000000, 0.0000000000, 0.0000000000, 0.0000000000};
#endif

#endif
