//Numpy array shape [8, 33]
//Min -0.169386595488
//Max 0.173451393843
//Number of zeros 0

#pragma once

model_default_t w2[264] = {-0.0550308265, 0.0479425080, 0.1703051776, -0.0865047872, -0.0542324670, 0.0734139830, 0.0600481853, -0.1181990877, -0.1649990529, -0.0684200302, 0.0757279843, 0.0281341448, 0.0263611209, -0.0985002071, -0.1056791469, 0.0842499286, -0.0477415100, -0.1060965210, -0.0791585296, -0.0948125124, 0.0697053894, -0.0942729861, -0.1221771017, -0.1220744848, -0.0294937529, 0.0856205747, -0.1572143286, -0.0701042190, -0.1445167512, -0.0918081850, -0.1426010579, -0.1052653566, 0.1734513938, 0.0174913369, 0.1113736555, 0.1121931151, 0.1478729695, 0.1596612781, 0.0865915716, -0.0893115550, -0.0875329450, -0.0753521696, 0.1425127387, 0.1200821325, -0.1578162760, 0.0278501362, -0.0744317695, -0.0996387675, -0.1519399136, 0.0809214413, 0.0484377481, 0.1015845090, -0.0703927055, 0.0694313273, 0.1076877192, -0.1110419407, 0.0086745936, -0.0847725421, 0.1018118635, -0.0142265381, 0.0284157246, 0.1100991890, 0.0625981688, -0.0351455323, -0.1367279440, -0.1458640099, 0.1150608957, -0.1693865955, -0.1404389441, -0.0462230891, -0.0793358535, -0.0387645215, -0.1632737368, -0.0713625997, 0.1049086601, 0.0368332677, -0.1279502213, -0.0748243928, 0.1008295640, 0.1325448602, -0.1239723042, 0.1518038362, 0.1411441565, 0.0676894262, -0.0713363513, 0.0909649208, -0.1210889891, 0.0174009427, -0.1414118856, 0.0728955492, 0.0297320019, 0.0692616180, -0.0346375741, -0.1161351874, 0.1673108041, 0.1660411954, 0.1034340188, 0.0782270283, -0.0502667166, 0.0774081647, -0.1531718671, -0.1391432583, -0.0523760840, 0.0909975618, 0.0395040475, -0.1332790107, -0.1192571968, -0.0065308218, 0.1463115662, -0.0265295636, -0.0420445725, 0.1233360395, 0.1428571343, 0.1509030163, 0.1559314579, 0.1445918977, 0.0124539305, -0.0812722072, 0.0195157658, 0.1112802327, -0.0418774374, -0.0859459192, 0.0081237620, -0.1126749068, -0.0197525229, 0.0109231006, 0.0272244532, -0.0822016746, -0.0988319218, -0.1378388852, 0.1006866693, 0.0953245610, -0.1468392611, 0.1519296318, 0.1504400671, 0.1634328216, -0.1592957377, -0.1407494098, 0.0625584945, 0.0356416032, 0.0840253755, 0.1471787393, 0.1492096037, -0.1572397947, 0.0764909387, -0.1504709274, -0.1691815555, 0.1555936486, 0.1200206056, -0.0878760368, -0.1273851097, -0.0638087392, 0.0088294018, -0.0672349259, -0.1496221870, -0.0294312909, 0.0391159318, 0.0867955983, -0.0244022664, -0.0545331985, 0.0012961080, 0.0673987195, -0.1096852794, -0.0552916527, 0.0226556193, 0.0553982332, -0.1423504502, 0.0633743480, -0.0376374982, 0.0161697045, -0.0835703760, -0.0169406291, -0.1676839888, 0.0348853059, 0.0871620923, 0.0832747221, 0.0222257283, 0.0327508934, 0.0718169808, -0.1546712965, 0.1168441921, 0.0398767702, 0.1635384411, 0.0348851420, 0.1546275467, -0.1359036416, 0.0866931900, 0.1025675759, -0.1475772560, 0.0837920010, 0.0317513905, -0.0388200954, 0.0356866121, 0.0473584346, 0.1660764366, -0.0875839591, -0.1178243086, 0.0205730014, 0.1124267206, 0.1227573603, -0.0981827676, -0.1104470268, -0.1349299401, 0.0762116015, 0.0164871011, -0.0595362000, -0.0494255684, -0.0693808571, 0.1482424736, 0.0366593041, -0.0399268419, -0.0679244027, 0.0842047557, 0.0433341861, 0.1621416360, 0.1161707565, -0.0269587077, 0.0594083704, -0.1354511827, -0.0976925343, -0.0633711740, 0.1365401000, -0.1084807664, 0.0405793786, -0.0869302973, 0.0542918593, -0.1483250856, -0.0455082953, 0.1410035938, -0.1660366952, -0.1115667671, -0.1556432247, -0.0213191491, -0.0405788831, 0.0522314869, -0.0284289420, 0.1546111852, -0.0406781361, 0.0630198270, 0.0262760185, -0.0239450876, 0.0378781334, 0.0273850299, 0.0512300730, -0.0028442452, -0.0663657039, -0.1590883732, 0.0180384349, -0.0794435963, 0.0225200690, -0.0543901995, -0.0735188648, 0.0349209383, 0.1303348392, -0.0092169596, 0.0273866896, -0.0284105781, 0.0079959109, 0.0804207250, 0.1646219939, -0.1483283341, -0.1413877606, -0.1036917195, 0.1687048674};

