//Numpy array shape [8, 8]
//Min -0.351577401161
//Max 0.347183018923
//Number of zeros 0

#pragma once

model_default_t w4[64] = {0.0255107284, 0.1445146352, 0.0368668176, -0.1983733326, 0.3248317838, -0.0864544362, 0.0924100801, 0.1200319901, 0.3041090667, -0.0006792807, 0.3351555765, 0.2187588364, 0.0201589223, -0.3479057848, -0.3515774012, 0.0864335299, -0.2015412599, 0.0960453302, 0.2506237030, -0.2730514705, -0.2649923265, 0.1016129330, 0.3012857437, -0.0840719640, -0.1892944723, 0.1343942881, -0.0450164564, -0.3426893950, 0.1152132154, -0.2778152823, 0.3182462454, 0.2760915756, -0.0273063108, -0.2441898137, -0.1471612453, 0.1863652617, -0.3315414488, 0.1857054979, -0.2976413369, -0.2990247309, 0.1581425220, -0.0729082748, 0.0590601265, 0.1374886185, -0.1547272801, 0.0492668003, -0.2951526344, 0.0271694604, 0.3471830189, 0.0452907495, -0.2920305729, 0.3453046978, 0.0867553279, -0.2039638609, -0.0016997823, 0.2616464496, 0.2232620120, 0.2263398319, -0.1040800363, -0.2521019280, 0.3048114777, 0.1404647380, -0.2241277844, -0.2433024198};

