//Numpy array shape [8, 8]
//Min -0.350742995739
//Max 0.352160006762
//Number of zeros 0

#pragma once

model_default_t w6[64] = {-0.3057912290, -0.0724887028, -0.3406347334, 0.0278858300, 0.0660548136, -0.2161283195, 0.0664770827, 0.0768271312, 0.1083792672, -0.3507429957, -0.1784149855, -0.1407817304, -0.1401233971, 0.1103921160, 0.0701085851, 0.3455242813, 0.2177301496, -0.2587222457, -0.0509321466, 0.1208455041, -0.0661042556, 0.2146000266, -0.0433948599, -0.3429266810, 0.1758705825, -0.3287275732, -0.3460203409, 0.1918341964, 0.1752591580, 0.1871151030, 0.0461848527, 0.2780819535, -0.0656443089, 0.0590283461, 0.2838002741, 0.3521600068, 0.1557921916, 0.0389053337, 0.2590534985, -0.1786277443, -0.2404411137, -0.2184396088, -0.3282245994, -0.3368529379, -0.0160643123, -0.2342910469, -0.2579948008, -0.1568941623, -0.2573958039, -0.0673988387, -0.2748769224, 0.0720022023, -0.0246738605, -0.3345710039, 0.2403860688, -0.1652271897, 0.1180311069, 0.0914179906, 0.2031782717, -0.3094698191, 0.1238591745, -0.1879941225, 0.3263303041, 0.2345486432};

