//Numpy array shape [8, 8]
//Min -0.591135799885
//Max 0.696425020695
//Number of zeros 0

#ifndef W2_H_
#define W2_H_

dense_in_2_weight_t w2[64] = {0.011614397168159485, -0.371534138917923, 0.03141385689377785, -0.2750217318534851, -0.42180168628692627, -0.3096601665019989, -0.2883168160915375, -0.08664581179618835, 0.3178495168685913, -0.02031613700091839, 0.39832955598831177, -0.479722261428833, -0.023885393515229225, 0.22447822988033295, 0.17149314284324646, -0.30884668231010437, 0.43506309390068054, -0.0908980667591095, 0.31349626183509827, 0.3020850419998169, 0.05306726694107056, -0.33182209730148315, 0.04539129510521889, 0.46344926953315735, -0.44673898816108704, -0.22981740534305573, 0.08284537494182587, -0.4120323359966278, 0.21848177909851074, -0.5911357998847961, 0.6456626653671265, 0.45114704966545105, 0.6964250206947327, 0.3809761106967926, -0.21414460241794586, 0.5133892893791199, -0.10761237144470215, 0.3538680076599121, -0.46228840947151184, 0.29120567440986633, -0.4106018841266632, 0.12380111217498779, 0.1050645262002945, -0.5903571248054504, 0.2671533524990082, -0.2989007830619812, 0.3743882179260254, -0.2591513395309448, 0.011796531267464161, -0.17834605276584625, 0.4749692678451538, -0.53680020570755, 0.36897385120391846, 0.21131446957588196, 0.361284077167511, -0.43687334656715393, 0.2833496630191803, -0.4558986723423004, 0.4924066364765167, 0.2986704111099243, -0.15270870923995972, 0.09193263202905655, 0.3263790011405945, -0.27246612310409546};


#endif
