//Numpy array shape [8, 8]
//Min -0.679885685444
//Max 0.713928937912
//Number of zeros 0

#ifndef W3_H_
#define W3_H_

dense_in_3_weight_t w3[64] = {-0.12859627604484558, 0.6957688927650452, -0.3382667303085327, -0.553851306438446, -0.10041367262601852, -0.6350517272949219, -0.5036973357200623, 0.1938849538564682, 0.16917972266674042, 0.5933291912078857, 0.23810672760009766, -0.14382964372634888, 0.46447595953941345, 0.1481803059577942, -0.4222351908683777, 0.010752668604254723, 0.5899173617362976, 0.590833306312561, -0.46121707558631897, -0.28999048471450806, -0.1275816559791565, -0.03448712080717087, 0.30569005012512207, -0.5944336652755737, -0.5644671320915222, -0.02544250525534153, 0.05299133062362671, -0.4509139060974121, 0.4780653119087219, 0.4873564839363098, 0.032633356750011444, 0.37877988815307617, 0.6488508582115173, -0.4361565113067627, 0.15985026955604553, 0.06593507528305054, 0.5923359394073486, -0.6798856854438782, -0.06681323796510696, -0.03872113302350044, 0.2641729414463043, -0.12719158828258514, 0.5802244544029236, 0.4685543179512024, -0.19416537880897522, 0.46525484323501587, -0.4650595188140869, -0.4020281136035919, -0.24417974054813385, 0.009867213666439056, 0.4355711042881012, -0.49441608786582947, -0.19586046040058136, 0.089545838534832, 0.07475676387548447, 0.29059287905693054, 0.2659622132778168, -0.42625072598457336, -0.45824843645095825, 0.11747533082962036, 0.0521954782307148, 0.5491362810134888, 0.7139289379119873, 0.12639963626861572};


#endif
