//Numpy array shape [8, 8]
//Min -0.390356719494
//Max 0.549650013447
//Number of zeros 0

#pragma once

model_default_t w4[64] = {-0.0468336605, 0.3245683312, -0.2062457204, -0.0316690728, 0.2620534301, -0.2873339951, 0.3177762628, -0.1225208864, 0.1416896135, 0.1290121377, -0.2085193843, 0.3061368465, -0.1181361824, 0.2730785608, 0.1974916160, -0.1467397660, 0.0757526383, -0.0394852310, 0.4127818942, 0.0165746007, -0.0193712395, 0.3043302596, -0.1787520349, 0.4683981240, -0.2699033022, -0.2979038060, 0.2137691230, 0.0035824713, 0.1712034047, 0.2885095775, 0.3691888452, -0.2657808363, -0.0680288896, 0.1465292275, -0.1401432008, 0.1855284274, 0.1247533634, -0.0349697992, 0.4136216044, -0.3903567195, 0.2502823174, -0.2006456703, -0.0901086926, -0.2986257076, 0.2673294544, 0.2321905643, 0.1275199205, 0.2554299235, -0.0536287017, -0.0201844536, 0.3341572583, -0.0263887141, -0.1272589564, 0.5496500134, 0.4244428575, 0.4414598048, -0.2355218083, 0.0742034465, 0.2033226341, -0.1295282990, -0.2920416594, 0.2673203945, 0.5086428523, -0.0321106575};

