//Numpy array shape [8, 8]
//Min -3.167114496231
//Max 2.249540328979
//Number of zeros 0

#pragma once

model_default_t w4[64] = {0.0058714268, -0.0019101057, -0.4200764894, 0.9359499216, -0.0493514128, 2.2495403290, -0.0221154261, -0.0392051078, -1.2315487862, -0.0879061818, -0.0769124627, -0.0865160078, -3.1671144962, -0.0099895271, -0.0751717985, -0.1590498537, -0.1862286925, -0.1481075585, 0.0866304785, -0.6347886324, 0.6609532237, 0.6566154361, 0.3047324121, 0.3781848848, 0.4552316368, -0.2813767493, 0.2157075405, -0.5461514592, 0.2812613845, 0.4150245488, 0.6723257303, 0.0993118510, 0.9705015421, -0.2536691427, 0.1724619269, -0.4443974793, 0.2088820338, 0.3517961502, 0.3593273759, 0.2214182615, -0.6197861433, 0.0147317322, -2.6150522232, -1.2592217922, -0.8331866860, -2.0366141796, -0.9930318594, -1.1369780302, 0.0492679700, -0.0416672863, -0.1498243064, 0.0217839051, -0.0370275900, -0.1107847095, -0.2434387952, 0.0620081201, 0.0028903573, 0.1947551221, 0.0767398551, 0.8924210072, -0.1204201207, 0.5089595914, 0.0417768210, -0.1132979617};

