//Numpy array shape [8, 8]
//Min -0.428151965141
//Max 0.978695213795
//Number of zeros 0

#pragma once

model_default_t w4[64] = {-0.0074401065, -0.0554632843, 0.2229750901, 0.1647810936, 0.0464958735, -0.3332936466, 0.3489650190, 0.1231272519, 0.2980435491, 0.0879398584, 0.1441598833, -0.0504021496, -0.1998927146, 0.0112272035, -0.0061941538, -0.0953654200, 0.0926356614, -0.0749652311, 0.2315116525, 0.4237895310, -0.4281519651, -0.1661541313, -0.4200380147, 0.4362103939, 0.2852478623, 0.2774501443, -0.0501252338, 0.2226043344, 0.1620649993, -0.2642669678, -0.0330365747, 0.2673598528, -0.2383127362, 0.3204451799, 0.0833031163, 0.1105750352, -0.3121806979, -0.0530405007, 0.0435975827, -0.0872521922, 0.2440955788, 0.2814519107, 0.0426320508, 0.1391118616, 0.2610902488, -0.0648690164, -0.0435468554, 0.3071312606, -0.0128019452, 0.0946475491, 0.9786952138, -0.2297704965, -0.1299415231, 0.0541005358, -0.2979014218, 0.0401587710, -0.1307221204, 0.3045338094, 0.2446402758, -0.0753197074, 0.2192443609, -0.3250632584, 0.2913750708, -0.3117845953};

