//Numpy array shape [8, 8]
//Min -0.611646711826
//Max 0.604509294033
//Number of zeros 0

#ifndef W4_H_
#define W4_H_

dense_in_out_weight_t w4[64] = {0.3412878215312958, 0.0997379943728447, 0.5988805294036865, -0.40492546558380127, -0.29258614778518677, 0.15685522556304932, 0.38888415694236755, -0.14111468195915222, 0.5633823871612549, 0.4827955961227417, 0.02943173423409462, 0.31421270966529846, 0.24413898587226868, -0.19075435400009155, 0.6045092940330505, -0.42157965898513794, -0.6116467118263245, 0.06553850322961807, 0.031991343945264816, -0.5020563006401062, 0.5312355160713196, -0.06702596694231033, 0.38567155599594116, 0.4196789264678955, -0.5650516748428345, 0.08062845468521118, 0.29643934965133667, 0.19590383768081665, -0.19401675462722778, -0.5437844395637512, -0.4478004574775696, 0.10203278064727783, -0.15385375916957855, 0.26764383912086487, -0.29951295256614685, 0.22672505676746368, -0.5469512939453125, -0.5720517039299011, -0.14965714514255524, -0.41302573680877686, -0.002286766190081835, 0.5545225739479065, -0.5108814835548401, -0.31156083941459656, 0.5524731874465942, -0.3590959310531616, 0.1262049823999405, -0.45365798473358154, 0.02856490947306156, -0.6053377985954285, 0.24606654047966003, -0.3316945433616638, 0.5125821828842163, 0.10905906558036804, -0.22844359278678894, -0.024086521938443184, 0.11390163749456406, -0.31710514426231384, -0.45025187730789185, -0.0383322648704052, 0.19545592367649078, -0.4930127263069153, -0.31827256083488464, 0.4550893008708954};


#endif
