//Numpy array shape [8, 8]
//Min -0.344294786453
//Max 0.352655708790
//Number of zeros 0

#pragma once

model_default_t w4[64] = {-0.0232294463, -0.2677412331, -0.3113833964, 0.0191302858, -0.1642177701, 0.1351891756, 0.0522558130, 0.0625396818, -0.3224748075, 0.3524655700, -0.2150449753, -0.1829546988, 0.0616473928, -0.1607949436, 0.0955624580, 0.0504584573, -0.0845591351, -0.1170154139, 0.2044655681, -0.1692226231, 0.1521597654, -0.2171530426, 0.0931485817, 0.0932115912, -0.1327780336, 0.1954844147, -0.3249729872, 0.3392174244, -0.2876650989, -0.3243311346, 0.2830509245, -0.0421201251, -0.1371162534, 0.3044843674, -0.0675639287, -0.1358815283, -0.0149038844, 0.1520988345, 0.0355670936, -0.0937768221, 0.3526557088, 0.0573525466, 0.1302593052, 0.1870440841, 0.2137547731, 0.1400010735, -0.0847988650, 0.1196780428, 0.2741499543, -0.3442947865, 0.0392618105, 0.2799025774, 0.2832531035, -0.0700446442, -0.2225376815, -0.0527627952, -0.0987570211, -0.0158500392, 0.1850472987, -0.3005004525, -0.1304604262, 0.2021344751, 0.1720561683, 0.0321572423};

