//Numpy array shape [8, 8]
//Min -0.707176566124
//Max 1.370001912117
//Number of zeros 0

#pragma once

model_default_t w6[64] = {0.2540336549, -0.0242166109, 0.0517070554, -0.2756942809, 1.1729824543, -0.4998016655, 0.1511916965, -0.0929195136, -0.2029756755, 0.1636796147, -0.0182100218, -0.0874866173, 0.0453722179, -0.1906662434, -0.3063234687, -0.2426116616, -0.1617535800, 0.0188606288, 0.3845808506, 0.0835307389, -0.3464004099, 0.2451862544, 0.0474306270, 0.0393973254, 0.6804074049, -0.4527336061, 1.3700019121, 0.1543250233, -0.7071765661, 0.1851953268, 0.5966067910, 0.1852408201, 0.6571777463, -0.3109864295, 0.7906172872, -0.0707772672, -0.4428571165, -0.2923599780, 0.3174919784, -0.3477015793, 0.0960963219, -0.1619055122, 0.7127901912, -0.0626033992, -0.5278365612, -0.0582075231, 0.1833637506, -0.2143677324, -0.0632403195, -0.0112785315, -0.0053274031, -0.3234475255, 0.5976926088, 0.0053999522, -0.0202867743, -0.3363947868, -0.1044237465, 0.0322183445, -0.0089635486, -0.0415077768, 0.2372882068, -0.0677402765, -0.0074827364, -0.3061825037};

