//Numpy array shape [8, 8]
//Min -0.608236253262
//Max 0.596232473850
//Number of zeros 48

#ifndef W8_H_
#define W8_H_

#ifndef __SYNTHESIS__
dense_in_out_weight_t w8[64];
#else
dense_in_out_weight_t w8[64] = {-0.0000000000, -0.4258520007, -0.0000000000, 0.5565003157, -0.0000000000, 0.0000000000, 0.0000000000, 0.0000000000, -0.0000000000, 0.4460477233, 0.0000000000, -0.0000000000, -0.0000000000, 0.5867102742, -0.5127882361, 0.5574918389, 0.0000000000, -0.4480226636, -0.0000000000, -0.0000000000, 0.0000000000, 0.0000000000, -0.6082362533, -0.0000000000, -0.0000000000, -0.0000000000, -0.0000000000, -0.0000000000, 0.5517720580, -0.5270822644, 0.0000000000, 0.0000000000, -0.4462910891, 0.5962324739, -0.0000000000, -0.5201855898, 0.0000000000, 0.0000000000, -0.5817598104, -0.0000000000, -0.0000000000, -0.0000000000, -0.0000000000, -0.0000000000, -0.0000000000, 0.5113670230, 0.0000000000, -0.5250488520, -0.0000000000, -0.0000000000, -0.0000000000, 0.0000000000, 0.0000000000, 0.0000000000, 0.0000000000, 0.0000000000, -0.0000000000, 0.0000000000, -0.0000000000, 0.0000000000, 0.0000000000, 0.0000000000, 0.0000000000, 0.0000000000};
#endif

#endif
