//Numpy array shape [8, 8]
//Min -0.345229983330
//Max 0.342654407024
//Number of zeros 0

#pragma once

model_default_t w4[64] = {0.1404756159, 0.0660274625, 0.1939565837, 0.2339374721, 0.2281685770, -0.0315811373, -0.2653104365, 0.3320175111, -0.0299647655, -0.2002608329, -0.1204147637, 0.0248710234, -0.0954377875, 0.3405015469, 0.2543708384, 0.2839948535, 0.0353400484, -0.2915398180, 0.2620522380, 0.1179402843, -0.1907215714, -0.2409226000, 0.1092621237, 0.1541415602, -0.2826266587, 0.1222320944, -0.1387606114, 0.0402096957, -0.2133204043, 0.0595949255, 0.2098523527, -0.1789283752, -0.2554780841, -0.0288294982, -0.0780015066, -0.3205123544, 0.0384536460, 0.2699076235, -0.3443711400, 0.0861558244, 0.2665062249, 0.2392946333, 0.2701428235, 0.3130159080, -0.0848951712, 0.3233969808, 0.2177361399, -0.0769442096, -0.1575884521, -0.0855033100, 0.2536710799, 0.0076904930, -0.0940752178, 0.1860855371, 0.3239167631, -0.0313588567, 0.1481675357, -0.0947763771, -0.1445556730, -0.2546150982, -0.0868971050, -0.3452299833, -0.2776212394, 0.3426544070};

