//Numpy array shape [8, 8]
//Min -0.339651763439
//Max 0.341930031776
//Number of zeros 0

#pragma once

model_default_t w6[64] = {-0.1436219960, 0.2621662021, 0.1979597807, -0.2337094098, 0.0482499637, 0.2307500690, -0.0251831207, -0.1533920616, 0.0615505837, 0.2060193568, -0.0633261055, 0.2821841538, 0.0245528575, -0.1377852112, 0.2170744687, 0.1829538643, -0.0811778232, 0.0937240496, -0.0932918340, 0.2736785710, 0.0422330387, 0.0828106776, 0.2388064414, 0.2387910634, -0.0923708007, -0.3293105960, -0.3385228813, -0.1821641177, 0.1627782136, 0.2091598809, -0.0128116300, 0.2612335384, -0.0810799599, -0.0011023929, 0.1116476730, -0.1950599998, -0.2758605182, 0.2988616228, 0.2134691030, -0.3044900298, -0.1499628276, -0.0525951348, 0.3419300318, 0.0191828422, -0.2377655059, -0.0495893918, 0.0043790997, 0.2452622503, 0.3381431103, 0.1281093955, -0.1405007690, -0.2717920542, 0.0914163440, -0.3164021075, 0.2914798558, 0.1004774123, 0.2665764391, -0.3041027486, 0.2778840661, -0.0761902928, -0.0517436005, 0.2607734501, 0.1072466597, -0.3396517634};

