//Numpy array shape [8, 8]
//Min -0.603101134300
//Max 0.590157508850
//Number of zeros 48

#ifndef W4_H_
#define W4_H_

#ifndef __SYNTHESIS__
dense_in_2_weight_t w4[64];
#else
dense_in_2_weight_t w4[64] = {-0.5453736782, 0.0000000000, 0.0000000000, -0.0000000000, -0.0000000000, -0.0000000000, -0.5463999510, -0.0000000000, 0.0000000000, 0.0000000000, 0.0000000000, -0.0000000000, 0.0000000000, -0.0000000000, -0.0000000000, 0.5281765461, -0.0000000000, -0.0000000000, 0.0000000000, -0.0000000000, -0.5127738118, -0.0000000000, -0.0000000000, -0.0000000000, 0.0000000000, 0.5583937764, 0.0000000000, -0.0000000000, -0.0000000000, 0.0000000000, -0.0000000000, 0.5901575089, 0.4560667872, -0.5307627916, 0.5055015683, 0.5386523604, -0.0000000000, -0.0000000000, -0.0000000000, 0.5013555288, 0.0000000000, 0.0000000000, 0.0000000000, -0.0000000000, -0.4553561509, -0.0000000000, -0.0000000000, 0.5771911740, 0.0000000000, 0.0000000000, 0.0000000000, -0.0000000000, -0.0000000000, 0.4598821998, -0.5428590178, 0.0000000000, 0.0000000000, 0.0000000000, 0.0000000000, -0.0000000000, -0.0000000000, -0.6031011343, 0.0000000000, 0.0000000000};
#endif

#endif
