//Numpy array shape [30, 8]
//Min -0.429871648550
//Max 0.401935219765
//Number of zeros 180

#ifndef W1_H_
#define W1_H_

dense_node_1_weight_t w1[240] = {0.21458986401557922, -0.3133367896080017, 0.10439426451921463, 0.19734075665473938, -0.15989959239959717, 0.03299257159233093, 0.23393212258815765, -0.11688157171010971, 0.09286322444677353, 0.33388781547546387, -0.35217228531837463, 0.1915242224931717, 0.2500156760215759, 0.08046091347932816, 0.38908764719963074, 0.19259871542453766, -0.12514464557170868, 0.12890957295894623, 0.07210251688957214, -0.3838118314743042, -0.014109519310295582, -0.08301917463541031, 0.18867911398410797, -0.1681881844997406, 0.151773601770401, 0.286257266998291, -0.015603141859173775, 0.10758447647094727, -0.06406350433826447, -0.10015465319156647, 0.2937997877597809, -0.22078892588615417, -0.0011870319722220302, 0.19011500477790833, 0.003272820031270385, 0.33714908361434937, -0.29318946599960327, -0.06949233263731003, -0.2633175849914551, -0.11650995910167694, -0.2515656054019928, 0.14605914056301117, -0.23828046023845673, -0.14050815999507904, -0.37583523988723755, 0.06737426668405533, 0.12219522893428802, 0.09594761580228806, 0.2847925126552582, -0.22116521000862122, 0.06239205598831177, 0.23426806926727295, 0.39201483130455017, -0.2686876058578491, 0.10652082413434982, -0.420752614736557, -0.10773483663797379, 0.2531246244907379, 0.27657902240753174, -0.19866466522216797, -0.08958955109119415, -0.0488232783973217, 0.07736776024103165, -0.19365714490413666, 0.048585135489702225, 0.3393867313861847, 0.003838233882561326, -0.315146803855896, 0.38434600830078125, 0.40542593598365784, 0.24224694073200226, -0.26526162028312683, 0.3073842227458954, -0.3026939034461975, 0.2488342970609665, -0.07796015590429306, -0.13462384045124054, -0.30409732460975647, -0.20597098767757416, -0.007000948768109083, -0.0006602768553420901, 0.3081727623939514, 0.2637375593185425, 0.29921597242355347, 0.42359235882759094, 0.1954270750284195, -0.1471165269613266, -0.15393249690532684, 0.21298328042030334, 0.0017960466211661696, -0.12216855585575104, -0.055758923292160034, -0.14127841591835022, 0.18112121522426605, -0.15907661616802216, -0.46599286794662476, 0.4903830587863922, -0.21054832637310028, -0.2538280487060547, 0.07342153787612915, 0.22158119082450867, -0.3023777902126312, 0.2731071412563324, -0.030093949288129807, -0.3401217758655548, -0.39390379190444946, -0.07325594872236252, 0.3874874711036682, 0.3238792419433594, 0.10404960066080093, -0.23740649223327637, 0.0005118258995935321, -0.2705579996109009, -0.1508343666791916, -0.20943081378936768, 0.031955160200595856, -0.011076251044869423, 0.05546439811587334, 0.2929818034172058, 0.16674698889255524, -0.23853446543216705, 0.42172396183013916, 0.16933278739452362, 0.4262615442276001, 0.24830913543701172, 0.038088731467723846, -0.2493891417980194, 0.05154652148485184, -0.24402502179145813, 0.02226625569164753, -0.35646986961364746, -0.23263177275657654, 0.2867754399776459, -0.3828045129776001, -0.27205321192741394, -0.39058661460876465, -0.11476773768663406, 0.3505847454071045, 0.18480511009693146, 0.2316618263721466, 0.1980283111333847, 0.06162261217832565, 0.04605188965797424, 0.06657467782497406, 0.07769833505153656, -0.08375106751918793, -0.14502011239528656, 0.24396485090255737, -0.08478207141160965, -0.1556638777256012, 0.06518678367137909, -0.23329350352287292, -0.0005465493304654956, 0.33494943380355835, 0.28199854493141174, 0.07265565544366837, 0.4781932532787323, -0.012066644616425037, -0.062270015478134155, -0.25671297311782837, -0.18282228708267212, 0.016302041709423065, 0.16234636306762695, 0.24728934466838837, -0.06898731738328934, 0.3896694481372833, 0.008182159624993801, -0.18593911826610565, -0.1745317578315735, -0.2012128084897995, 0.21245205402374268, 0.40207746624946594, -0.2806277871131897, 0.444587379693985, -0.5115460753440857, -0.05361924320459366, 0.06593416631221771, 0.015485222451388836, -0.3628259003162384, -0.1624763458967209, -0.20434622466564178, 0.2517015039920807, -0.26319262385368347, -0.3441573977470398, -0.16079647839069366, -0.0742010697722435, 0.2394254505634308, 0.3645176291465759, 0.47855323553085327, -0.19959282875061035, 0.3538726568222046, -0.11016933619976044, -0.03219825401902199, 0.039549898356199265, -0.35706624388694763, 0.5192118883132935, 0.3436921238899231, 0.011845754459500313, -0.18852481245994568, -0.1288600116968155, -0.1570829600095749, 0.4430387616157532, 0.34986892342567444, 0.12137319892644882, 0.1852838099002838, 0.09830068796873093, -0.24492795765399933, -0.26988428831100464, 0.032111458480358124, 0.015441308729350567, -0.055704716593027115, 0.40779080986976624, 0.2828953266143799, 0.29722413420677185, -0.10453293472528458, 0.06372056901454926, 0.12220587581396103, 0.06255346536636353, 0.3265332579612732, -0.2530640959739685, 0.22298239171504974, 0.3755404055118561, 0.3462470471858978, 0.12267936021089554, 0.2551920413970947, 0.24545827507972717, -0.20413905382156372, 0.15524794161319733, -0.0358741469681263, 0.3293166756629944, -0.1494409292936325, 0.09173759818077087, -0.30298128724098206, 0.16720472276210785, -0.3366140127182007, 0.24030429124832153, -0.3311021625995636, 0.5061520338058472, -0.4477205276489258, 0.14021648466587067};

#endif
