#ifndef W1_H_
#define W1_H_
dense_node_1_weight_t w1[240] = {-0.30087632, 0.028772384, -0.3882948, -0.03447607, 0.30281958, -0.23348182, -0.2500391, 0.3192707, 0.34648725, -0.124595344, -0.08251086, 0.23757753, -0.1419087, -0.3532303, -0.25766644, 0.21460965, 0.33724478, -0.32626078, -0.37751144, -0.35268262, -0.3367618, -0.27230924, -0.08042568, -0.22573605, -0.05599466, -0.022822946, -0.2427417, -0.19961794, -0.28699815, -0.09903222, -0.09596348, -0.21645439, 0.059466332, -0.051209062, -0.38386163, -0.32785028, 0.33570454, 0.26698694, -0.20155628, -0.18707483, 0.013023913, -0.35350126, 0.31292018, 0.25959995, -0.040171623, -0.1407784, 0.15555361, -0.18443866, -0.18250515, -0.3423954, -0.09688622, 0.117637426, 0.053460985, 0.026771814, -0.3836082, 0.36246678, 0.19573984, -0.35363975, 0.3965386, -0.086958826, 0.13881734, 0.11435208, -0.08138472, -0.0846619, 0.30043212, 0.06483874, 0.33886036, -0.3627922, -0.26786572, 0.25962552, -0.16900717, 0.066898435, -0.033299804, 0.13999727, 0.25447956, -0.20767626, -0.29154152, 0.39626303, -0.2507681, -0.22299434, 0.25198767, 0.0082321465, -0.22740012, 0.07853538, -0.08002022, 0.3236679, -0.10417849, -0.3516887, 0.06238985, -0.2605585, 0.35677454, 0.348299, 0.36322305, -0.1776573, 0.02157572, -0.11926606, -0.052678168, 0.11379561, -0.22270416, 0.3290296, 0.008334935, -0.24652478, 0.3222973, -0.3578035, -0.34947717, 0.25558195, -0.05256012, 0.37560531, 0.34059557, 0.066280544, -0.37167975, 0.2557393, 0.114022344, 0.013580412, -0.18400523, 0.135847, 0.33264914, 0.24407598, 0.19585845, -0.28303128, 0.29302868, 0.3906708, -0.15890053, 0.056694597, -0.3752691, 0.08424315, 0.12510392, -0.08027032, -0.34227026, -0.21217935, 0.15277323, -0.2399888, 0.33556935, -0.021468759, 0.36656818, 0.2270141, 0.33815333, 0.30822447, -0.31414747, 0.2620112, -0.228886, 0.084637165, -0.19067828, 0.24088845, -0.33474618, -0.016664594, 0.34950635, -0.10379857, -0.3314981, -0.23992486, -0.10708588, 0.28350678, 0.08110845, 0.047221094, -0.14699167, -0.13483748, -0.118177325, -0.003278315, -0.05081287, 0.09019315, 0.19570169, -0.2280452, 0.29631147, 0.07062307, -0.2563096, 0.05027914, -0.38598678, 0.3862717, -0.1042932, 0.21066108, 0.24396887, 0.03899488, 0.22157547, -0.25362927, 0.21115312, -0.2794047, -0.0014419258, 0.37580964, -0.363516, -0.27513742, 0.264941, -0.054298967, 0.36650756, 0.38137218, 0.13691202, 0.20915219, -0.19562541, 0.3835722, -0.32353327, -0.017848998, -0.037153274, 0.3967459, -0.16879457, 0.37050322, -0.30062753, 0.30945513, -0.06670791, -0.3627777, -0.2872493, -0.34716564, -0.2457269, -0.2525974, 0.28252622, 0.30457774, 0.10863933, 0.36589828, -0.21894382, -0.0045131147, -0.11339554, -0.08612597, 0.26827064, -0.18327935, -0.14227858, 0.38656023, 0.31258962, -0.38444218, -0.1944788, -0.20865859, -0.3346592, 0.1148493, -0.28613168, 0.024503887, -0.016698897, -0.2856287, -0.24960698, 0.39704743, 0.32638726, -0.19836816, 0.29763153, -0.31581658, 0.24470654, -0.36859336, 0.050923735, 0.31305298, 0.3880169, -0.2574689, 0.28749147, 0.13548443, -0.12169126, -0.12889627};
#endif
