//Numpy array shape [8, 33]
//Min -1.271770000458
//Max 2.252467632294
//Number of zeros 0

#pragma once

model_default_t w2[264] = {0.6083003283, 0.3872403204, 0.0121936789, -0.3887371719, -0.0952050090, -0.0838334262, 0.1697406471, 0.2144234627, -0.1208048239, 0.0763878897, 0.0709398687, -0.1241258532, -0.4990726709, 0.0010958588, -0.0420359038, 0.0308885016, -0.1840467304, -0.2655245960, 0.0547639765, -0.0711990073, -0.1420807093, -0.0702578947, 0.0943547487, -0.0222170949, 0.1453615576, 0.0690136626, 0.1110110208, 0.1085437387, 0.0170742907, 0.0057147546, -0.0731951520, 0.0163802672, -0.0780881867, -0.2730147243, -0.0045556785, -0.1373740286, 0.0418431498, 0.0503709540, 0.0453065485, 0.0166539811, 0.0022747128, -0.5132622719, -0.2027378976, 0.1722290963, 0.3076912463, 0.2520600557, 0.2960136235, -0.1160207391, -0.3289663792, 0.1366604716, -0.2626709342, 0.2310298830, 0.1254806668, -0.0794195980, -0.0313590877, 0.0067520118, -0.7118339539, 0.0222906023, -0.0833161101, 0.1372327209, -0.1289310604, 0.0138313761, -0.2093944103, -0.0285957567, 0.0513016246, 0.0066031497, -0.0046004714, 0.0297424216, -0.0504981503, 0.0370474383, 0.0263039805, 0.0169669595, 0.0023628504, -0.0046874168, -0.0030074357, -0.0026578631, -0.0081984047, 0.0035663301, 0.0063169212, 0.0010740686, 0.2850067616, 0.1730763316, 0.0878112540, 0.3227156401, -0.1269644648, 0.1141669080, 0.2421117425, 0.1790010333, 0.4497932196, -0.2578796148, -0.2972536087, 0.3697128296, 0.4252098799, 0.0436632000, -0.1062049121, -0.0354905874, -0.2971306145, -0.3221670687, 0.2578201294, 0.1104502007, -0.4274267256, -0.1267174333, -0.4332880378, -0.2956216633, 0.1701224595, -0.1157542169, 0.1775106788, 0.1571786851, -0.2099142671, 0.2401531190, -0.0940204188, -0.0699507967, -0.0169275049, -0.1682125032, 0.0847294405, 0.0520373285, 0.1055327803, -0.0003593225, 0.0116688460, -0.0375476591, 0.4092034996, 0.0255590901, -0.0048434776, 0.2809250653, 0.0022280850, 0.0120023061, 0.0898254886, -0.0018935815, 0.5430030823, 0.7750964165, -0.0970619246, 0.1745254844, -0.0826121420, 0.3656575084, 0.4665119350, 0.4006271958, 0.3617185354, 0.0803211480, -0.3213500381, -0.0040355693, 0.0346087478, -0.3416835070, 0.0912581459, -0.0137530090, 0.2599278688, 0.0251948815, 0.6830574274, 2.2001519203, 0.2002829909, 0.0115362061, -0.1598675847, -0.1156925261, -0.0065801567, -0.0241267178, 0.0066530965, 0.0307158753, 0.0640409142, 0.0306554809, 0.0685090795, 0.0287194680, -0.0142526161, 0.0002506899, 0.0000208394, -0.0087952660, 0.0071660443, 0.0004808742, 0.0098909214, 0.0003727877, -0.7470556498, 0.3657242656, -0.1048603132, -0.4133249521, -0.1216121763, 0.3636234105, -0.1199029759, 0.1408395320, 1.1643024683, 0.8267055750, -0.1474243253, -0.0427708067, -0.2156457156, 0.2400186211, -0.7472597361, -0.1153957546, -0.7090194225, -0.1764415950, 0.8196880817, 0.2451780438, -0.7005290389, 0.3649525344, 0.3910440803, 0.2395823896, -0.8931121230, 0.0189136900, 0.4525666237, 0.0582494587, -0.4360637665, 0.3101426363, 1.6531994343, 1.0302180052, -0.3839872479, 0.1616102606, -0.1135774925, -0.6054288745, 0.2279016525, 0.1398721039, 1.1021252871, 0.6951322556, -1.0410116911, -0.1998125911, 0.0052848100, -0.2509343028, -0.0257718377, -0.1932700872, 2.2524676323, 1.2908606529, -0.2423689812, -1.0552165508, 0.3768908978, 0.4417256713, -0.4877559245, -0.2969980538, 0.2942664027, 0.0229934137, -0.5471597314, -0.5097464919, -0.7561510801, 0.5465111136, 0.4523634613, -1.0083353519, 0.3801727295, -0.0495889038, 0.9543756247, -0.9540091753, -0.1385945678, 0.4660280943, -0.3561639488, -1.2717700005, -0.7696881890, -0.8177443147, -0.0904650837, 0.0176305082, 0.0014092606, -0.0966018736, -0.0330341011, -0.0619720034, -0.1222889274, -0.0554338694, 0.0092827547, -0.0038331866, -0.0005763748, -0.0029760138, -0.0005743376, -0.0011781774, -0.0185268987, -0.0063100355, 1.2942532301, -0.1675814986, -0.1796944439, -1.0129026175, 0.1444343477, -0.5171095133, 0.4616422653, 0.1149689779};

