//Numpy array shape [8, 33]
//Min -1.976188659668
//Max 1.143648862839
//Number of zeros 0

#pragma once

model_default_t w2[264] = {-0.0141684823, 1.1051429510, -1.9761886597, 0.2234904021, -0.0590997338, 0.0534002446, -0.0420435220, 0.4158235192, 0.0284361262, 0.1833789349, -0.1746884584, 0.0544258952, 0.1335901916, -0.1683310866, 0.0068400474, -0.0887065232, 0.0357537754, -0.1611485034, 0.2095709741, 0.2414713800, 0.0016790504, -0.0128433593, 0.0726962909, -0.1430676579, 0.2351334989, 0.0696036443, -1.2697075605, 0.1396128386, -0.0141937835, 0.0267032385, -0.0917469859, -0.1343494505, 0.1272943318, 0.0876415372, 0.2078900635, 0.3253126740, 0.0755228475, -0.2012291849, -0.3041995764, -0.0048831166, -0.4467478693, -0.2351140678, 0.0152718108, 0.0126243215, -0.1608909518, 0.0620309860, 0.0205031075, -0.1164240241, 0.0894504562, 0.1188990250, 0.0943767056, 0.0649149939, 0.0948552042, 0.0392141454, 0.0939647257, -0.0522535145, 0.0529483482, -0.1667468548, -0.6593940258, 0.1546033025, 0.1361383945, 0.2399424165, 0.2381451875, -0.0470806211, 0.2633624077, -0.1958094388, 0.0342287757, -0.1403084248, -0.0265144762, 0.4312748611, 0.3510381877, 0.2832184136, -0.0413773656, -0.0115297996, 0.0587155260, -0.1000716239, -0.0199637339, -0.1296692938, -0.0336885788, -0.0164216962, -0.1349016726, -0.0314724594, 0.1049756631, 0.0724209622, 0.0698222592, -0.0820998624, 0.0762055889, -0.2630496621, -0.0779029727, -0.0662477985, 0.1524586380, 0.2691493928, -0.2051740289, 0.0731000677, 0.1891106367, 0.0582020767, 0.1793847084, -0.0834655985, -0.3284021616, 0.1459557712, -0.2538458705, 0.1201271042, -0.0853383690, -0.3415805399, -0.1295404136, 0.1705403775, 0.0615395233, 0.0064392267, 0.1393093169, 0.1060009301, 0.0022650536, 0.0274391565, -0.1259824038, 0.1086585075, 0.0595448911, 0.2191310376, 0.1155463904, 0.1432190537, 0.2635228932, 0.1407968849, 0.1521998346, -0.2547289729, -0.2152598649, 0.1738694608, -0.0448738672, 0.1083754003, -0.0757733136, 0.0278687868, -0.1407936215, 0.0261977948, 0.0788704008, 0.2839046121, -0.2172885239, -0.0329696238, -0.1403797269, -0.1551077515, -0.1515171826, 0.4374774396, -0.2157480717, 0.0458015837, 0.0755756423, 0.0285794567, 0.1976907104, -0.0058223717, 0.1313655972, -0.2063097507, -0.0577777624, 0.1282831579, 0.1476806104, 0.0062008798, 0.1676458269, -0.2627885640, 0.2138250172, 0.1818516403, 0.0458633117, 0.2515469193, 0.0416653901, 0.0226227902, 0.0995720103, 0.1386662573, 0.0154739916, -0.0466229469, -0.3457888365, 0.0697229654, 0.0048331916, 0.0241187327, 0.0494599380, 0.0341694094, -0.1185063049, -0.0100671127, 0.3589372337, 0.0065142703, 0.0078729661, 0.0586417913, 0.0228797756, -0.1389724314, 0.6665705442, 0.6270681620, 0.1220345348, -0.3985238969, 0.6419152021, 0.4499440491, 0.3201277852, 0.8638092279, 0.3188510835, -0.4233072400, 0.3289874792, 0.3728192449, -0.3061983883, -0.1250828356, -0.2088983506, -0.3587361574, 0.2859461308, -0.1228599250, -0.0389023647, 0.1634020507, 0.0044587837, 0.1611707062, 0.0164695904, 0.1658342183, 0.2317436337, -0.4429369569, 0.0036907936, 0.2431049198, 0.0965880528, -0.1440117955, 0.0395967625, 0.4326986372, -0.0394185260, -0.1654655039, 0.2317194939, 0.3356122673, -0.1550808251, -0.0488805361, -0.1235516965, 0.2537699938, -0.0897700712, -0.0500987060, -0.1268209517, -0.0151044894, -0.0655565262, 0.0203084107, 0.1736552715, -0.8052848577, -0.2597369552, 0.3422841728, 0.1405831277, 0.0129446620, -0.1891176850, 0.0689654350, -0.1217774674, 0.2783147395, 1.0783632994, -0.8048101664, -0.2103423923, -0.0781526119, 0.5143814683, 0.3089696765, 0.3930683434, -0.6754992604, 0.2026485056, -0.6120477915, -0.0451874770, 1.1436488628, -1.6068069935, -0.6695580482, -0.0775882974, -0.8532496691, -0.0350864343, 0.0523738600, 0.0641577616, 0.0834645480, 0.0646652132, 0.1504760832, -0.0033205762, 0.0129114967, 0.1368914098, 0.7021312714, 0.1942283660, -0.1264863908, -0.7731490135, 0.2444802523, -0.0303532705, 0.3401899338};

