//Numpy array shape [8, 8]
//Min -0.620795905590
//Max 0.629550993443
//Number of zeros 48

#ifndef W2_H_
#define W2_H_

dense_node_2_weight_t w2[64] = {0.05759972706437111, -0.3174273669719696, 0.7590791583061218, 0.005701185669749975, 0.48858973383903503, -0.538200318813324, -0.15584273636341095, -0.39317819476127625, -0.4867980480194092, -0.03314543515443802, -0.010222005657851696, 0.07259296625852585, -0.2570344805717468, 0.15262286365032196, -0.3211062550544739, -0.07076616585254669, -0.029493868350982666, -0.6439352035522461, 0.02750195376574993, 0.5253833532333374, -0.5776505470275879, 0.47273051738739014, -0.2689856290817261, 0.1757057160139084, -0.6163602471351624, 0.5721128582954407, 0.40920326113700867, 0.14989043772220612, -0.1186734288930893, 0.6748111844062805, 0.21366748213768005, -0.04047085717320442, 0.03925999253988266, -0.24544808268547058, 0.7001467347145081, 0.03896312043070793, -0.18065375089645386, -0.4817878007888794, 0.33977898955345154, -0.4302906095981598, 0.5262676477432251, -0.06665049493312836, -0.5016258955001831, -0.43966439366340637, -0.6208751201629639, 0.7491730451583862, -0.30408135056495667, -0.4923960864543915, 0.5619228482246399, -0.5487059354782104, -0.2802707254886627, 0.22412246465682983, -0.011948634870350361, -0.6039083003997803, 0.49881136417388916, -0.5411334037780762, -0.27490589022636414, -0.45837944746017456, -0.296497106552124, 0.486770898103714, 0.06550892442464828, -0.20397698879241943, 0.18912144005298615, 0.44447532296180725};


#endif
