//Numpy array shape [8, 33]
//Min -0.173352673650
//Max 0.173786714673
//Number of zeros 0

#pragma once

model_default_t w2[264] = {0.1729894876, -0.0720472187, -0.1242066547, -0.1013393253, 0.1547767818, 0.0165878925, -0.1292304695, -0.0295523759, -0.0386511981, 0.0049100327, -0.0905132219, 0.0467448272, -0.1007319018, 0.1405939758, 0.0787120163, 0.1200143844, -0.0985807851, -0.0093959849, -0.0557806678, 0.0464588702, -0.0866625383, -0.1670967937, -0.0705822110, 0.0862315446, 0.0863373801, -0.0739997029, 0.0975465029, 0.0407816060, -0.1721844077, 0.1499872059, -0.1528984159, -0.0778567567, -0.0292242914, -0.0317834504, 0.0143215815, -0.0351441838, 0.1724715680, -0.1136254147, -0.0258080475, -0.1653624475, -0.0250731483, 0.1130307764, 0.1601809114, -0.0160069074, -0.0847674757, 0.0691701621, -0.1456129551, 0.1176785752, -0.0529997982, -0.0819813535, 0.0620839037, -0.0319459364, 0.1302089989, 0.0542007387, -0.1623474658, -0.0405740887, 0.1610747427, 0.0435729139, -0.1369330734, -0.0161863472, 0.0695138574, 0.1445993036, 0.0311455447, 0.0792993903, -0.1087322980, -0.0578258075, -0.0488275699, 0.0544843711, 0.0796433911, -0.0012134542, 0.0899596289, 0.0589011572, 0.0658623055, -0.0935591534, -0.1685593575, -0.0846589059, 0.0186609644, 0.0337773338, 0.1691939980, 0.1737867147, 0.0630034283, -0.0744483098, -0.0001711183, 0.0961868539, 0.1185451448, 0.0467894636, 0.0063734204, 0.1543138921, 0.0824138597, 0.1032080799, -0.0560353510, -0.0385234505, -0.0941407159, -0.1527893841, 0.0133073842, 0.1598553360, -0.1155214161, -0.1342782676, -0.0772494748, 0.0218457654, 0.1544264257, -0.0540095307, -0.0151756788, -0.1376679689, -0.1545284390, 0.0486697741, -0.0903293639, 0.0066511813, -0.0939430743, 0.0502977818, -0.0099505940, -0.0481616259, -0.0934841111, -0.0076864408, -0.0662493482, -0.0997741967, -0.1308036745, -0.1496171057, -0.1085996777, -0.0614444837, -0.1480257213, -0.0343568437, 0.0074105682, 0.1325944662, -0.0009787942, 0.0170627534, -0.1511480808, 0.1708898097, 0.0730349347, 0.0113672065, 0.1421229243, -0.0262021013, -0.1249401867, -0.0508363098, 0.0072182622, 0.0466316901, 0.1396463960, 0.0257376172, 0.1091058701, 0.1118165329, 0.1207567900, -0.1293240339, 0.1654858887, 0.0782080144, 0.1715680510, 0.0744016394, 0.1345076412, -0.0746725723, 0.0938773602, -0.0045437864, 0.0439567156, -0.1162101030, 0.0336196423, -0.1733526736, 0.0238013808, -0.1709705144, -0.1541944891, -0.0353696086, 0.0793946385, -0.0109745022, -0.0351039469, 0.1164152101, -0.0579820648, -0.1193582565, -0.1163292155, 0.0973998904, -0.1580433398, 0.0658820644, -0.0177651346, 0.0983492807, 0.1266073585, 0.0001475859, 0.0683042184, 0.0113943294, -0.1256066710, 0.0712477788, 0.0208394546, -0.0649016723, 0.1124071255, -0.1566147357, 0.1545410007, -0.1488343924, 0.1494430304, 0.0519189239, -0.0238412246, 0.1463991851, -0.1338032484, 0.1170986444, 0.1686950475, -0.0603885539, -0.1542481631, 0.0868278295, -0.1160745695, -0.1047813669, -0.0995054618, -0.0688861609, -0.1579904407, -0.1647403240, -0.0426644869, 0.0537644550, -0.0339486599, -0.0571969040, -0.0490009077, -0.1070380658, 0.0068613752, 0.1146041080, 0.0169429947, 0.1293963641, -0.0388856269, -0.0712856725, -0.1487425417, 0.0088830031, 0.1687442958, 0.0795901641, -0.0137875779, 0.0245284382, 0.1087151393, -0.0554644316, 0.0560854264, 0.0630339161, -0.1496624500, 0.1251145154, 0.0257070493, -0.0664643943, 0.1206080690, -0.0753235370, -0.0359416716, 0.0110774096, -0.0902927518, -0.1178351268, -0.0440752693, -0.0169182587, -0.1540130675, 0.1134700328, 0.1075073257, -0.0122516220, -0.0383846834, 0.0934248269, -0.0421997532, -0.0347468928, 0.1281981319, 0.0708202124, 0.0161522105, -0.0587294772, 0.1382885724, -0.1198154986, 0.1593052447, 0.1386349052, -0.0879193842, -0.1388835013, -0.0651230663, 0.0297919121, 0.0101833241, -0.0295546390, -0.0346608981, -0.1119890660, -0.0392957628, -0.0443162173, 0.1085017025, 0.0667923540, 0.0026185294, 0.0517261215, 0.1567823291, -0.0985091105};

