//Numpy array shape [8, 33]
//Min -0.730371713638
//Max 1.150836348534
//Number of zeros 0

#pragma once

model_default_t w2[264] = {0.2793266475, -0.0899338499, 0.0153153809, -0.1140702143, -0.2514551580, -0.1582890749, 0.0336547494, -0.0824015439, 0.0346441865, 0.0321623757, -0.0381622501, -0.0920569375, 0.2840520144, 0.0794587433, 0.0047617918, 0.1795938760, 0.0522087254, 0.0839047432, -0.0149239386, -0.1580198109, 0.1420801729, -0.3009639084, -0.0036542355, -0.0525098257, 0.0697144195, 0.2102181315, -0.1051555201, -0.2684936523, 0.1221719310, 0.1904175580, 0.1939174086, 0.0886841044, -0.1414949298, -0.0312660746, -0.0335737616, 0.0333770700, 0.1000802368, -0.0604882091, -0.2139039487, -0.0344746970, -0.1254237294, -0.0943988860, -0.2287244201, -0.0847843662, 0.0603294931, 0.2023072839, -0.3704383969, 0.2248010039, -0.1187902391, 0.2757101357, 0.2655663788, 0.0555127077, -0.2034938335, 0.0039838445, 0.0142818531, 0.0861043856, 0.0217537042, -0.1714804322, 0.1007627621, 0.0143235354, 0.0416908674, -0.2141116112, 0.0921532959, -0.0841201022, -0.0132044824, -0.4647454917, -0.1657375693, -0.0187444557, -0.1734137684, 0.0358365588, -0.0128419409, 0.2111477703, 0.0098121110, -0.0266061034, 0.0427616425, -0.0871625245, 0.0540870503, -0.0075983345, -0.0147718191, 0.0060184794, 0.0290626325, 0.0793851316, 0.1752108932, 0.0440220460, 0.0903735235, -0.0086154137, 0.0309523586, 0.0070850379, 0.1628284603, 0.0143305035, -0.0522367544, 0.0546060950, -0.2636150122, -0.1203322858, 0.0800092965, -0.0701177195, -0.1863351464, 0.1229746640, -0.0749942735, 0.0740933865, 0.0795317069, -0.0606915466, -0.1308239847, 0.0122522516, 0.1668067724, 0.0826974213, -0.1734977961, 0.1931673139, -0.0622258894, -0.0783389956, -0.0865533054, 0.1377022266, 0.2058624774, -0.2233004123, -0.1641703099, -0.1874387711, -0.1599985957, 0.0574001744, 0.0861253217, 0.0117116403, -0.3857685924, -0.1051999331, -0.2025795877, 0.1364745796, -0.0594712570, -0.0090266913, -0.4669034183, -0.1765315533, -0.2759830058, -0.1393551230, 0.0644093081, 0.2909923494, -0.1831395477, 0.1941511333, -0.4303838313, 0.3724164665, -0.1658139229, 0.3032922149, 0.2705613375, 0.0027652916, -0.1176191494, 0.0128168613, -0.0242005996, 0.0054775397, 0.2207627296, -0.0471125804, 0.0603029840, 0.1779877394, 0.1026157290, -0.2970568538, 0.2755285203, -0.2199192643, -0.0878176913, -0.0652608424, 0.1486616433, -0.0637366548, 0.0947661996, -0.2360332608, -0.0441001765, 0.0427641757, -0.0119387116, -0.0001192922, -0.0247107837, 0.0026969027, 0.0017203292, -0.0089614727, -0.0006998581, -0.0232227314, 0.0234155450, 0.0103205405, 0.0342912078, 0.0277593788, 0.0197586268, 0.1074133813, 0.0206057224, -0.0488776788, 0.0873980895, -0.0510366336, -0.1513240784, -0.0517834239, -0.4056611955, -0.3640150726, 0.0145734781, -0.3154887259, 0.1626354754, -0.0389008783, -0.2096720934, -0.0686514899, 0.4825426042, 0.2504876852, 0.1887352765, 0.5959255695, 0.1223632693, 0.1362442523, -0.0698116869, 0.1090923101, -0.1398849785, -0.0801798850, 0.1960026920, 0.1227716431, 0.1158175841, 0.0401815213, 0.0171987955, 0.2128432244, 0.2217253000, 0.2275883257, 0.1130981147, -0.0358379297, -0.6394414902, -0.0217931662, -0.2520927787, 0.5122925043, -0.3599832952, -0.3807263672, -0.5990240574, -0.1924987882, -0.3273640275, -0.2051280588, -0.2311784476, -0.0614074208, -0.0743879452, -0.1316820979, -0.7303717136, 0.1527748108, 0.0691361874, 0.1444558203, 0.3000926673, 0.2142722309, -0.2079083622, 0.0980427042, -0.0334323868, -0.1847221851, 0.2708719075, -0.0562211461, 0.2270506322, -0.1994410455, -0.3293955624, -0.0832111761, 0.1592244208, -0.0829455778, 0.7540954947, 1.1508363485, 0.3996499181, 0.1434791684, 0.1788537055, 0.6184062362, 0.7792367935, -0.0252283420, -0.0134015689, 0.0480524525, -0.0162467025, 0.0993816778, -0.1027031690, 0.0244887564, 0.0466724113, 0.0000711150, -0.3594347537, -0.1285554022, -0.5065194368, -0.0809783563, -0.2109162658, -0.2113296837, -0.1673107892, -0.2483799607};

