//Numpy array shape [8, 8]
//Min -0.615253269672
//Max 0.621558129787
//Number of zeros 48

#ifndef W3_H_
#define W3_H_

dense_node_3_weight_t w3[64] = {0.4580877721309662, 0.40384095907211304, -0.045586224645376205, 0.14390303194522858, 0.36070752143859863, -0.4754358232021332, 0.3521404564380646, 0.5740786194801331, 0.4565509855747223, 0.3297126293182373, 0.4857194125652313, 0.5747994780540466, 0.733247697353363, -0.14388641715049744, -0.21714384853839874, 0.3350241780281067, -0.11032140254974365, 0.6101660132408142, -0.3987138569355011, -0.3486834466457367, 0.0999976396560669, -0.5595152974128723, -0.4719080626964569, 0.327667236328125, 0.10713692754507065, -0.47278717160224915, -0.32531267404556274, 0.040539465844631195, 0.2979884147644043, 0.18767879903316498, -0.6421611905097961, 0.42012256383895874, -0.34196847677230835, -0.30632296204566956, 0.015917157754302025, 0.32911449670791626, -0.3174777030944824, 0.5814508199691772, 0.538733959197998, 0.29534637928009033, -0.1906125545501709, -0.19190022349357605, 0.7625669836997986, -0.5005380511283875, 0.44629961252212524, -0.10539702326059341, 0.273813933134079, 0.4313121438026428, 0.08010151237249374, 0.09003879129886627, -0.3806300163269043, 0.04855448752641678, 0.5685562491416931, -0.0370497889816761, 0.21283917129039764, -0.41564780473709106, 0.3919734060764313, 0.05357908084988594, 0.5022924542427063, 0.3518955111503601, 0.38866156339645386, 0.45335468649864197, -0.2636678218841553, 0.06090250238776207};

#endif
