//Numpy array shape [8, 8]
//Min -0.618516862392
//Max 0.593285858631
//Number of zeros 48

#ifndef W4_H_
#define W4_H_

dense_node_out_weight_t w4[64] = {-0.004731476306915283, -0.11294154077768326, -0.3848339319229126, -0.40747401118278503, -0.07960550487041473, 0.3914443850517273, -0.016332825645804405, -0.19561530649662018, -0.004840373992919922, -0.3580656945705414, 0.0794827863574028, 0.614028811454773, -0.2819526195526123, 0.4596422612667084, 0.6116122007369995, -0.28644442558288574, -0.23522713780403137, 0.8621102571487427, -0.15208140015602112, -0.509772002696991, 0.39079612493515015, 0.12074793130159378, -0.0981011688709259, 0.38236984610557556, 0.2397804856300354, -0.006098313257098198, 0.254978209733963, 0.272087961435318, -0.3651886284351349, 0.42365458607673645, -0.24500539898872375, 0.3640155494213104, -0.36877375841140747, 0.21192818880081177, -0.17075389623641968, 0.4164417088031769, 0.633343517780304, -0.5242918729782104, -0.20413020253181458, -0.6114490628242493, -0.17224010825157166, 0.4654090702533722, 0.46498385071754456, 0.4313579499721527, 0.2799079716205597, 0.3872123956680298, 0.5018795728683472, 0.17184165120124817, 0.15306800603866577, 0.5215821266174316, 0.05326581001281738, 0.6175801157951355, 0.34243375062942505, -0.26533275842666626, -0.5387452840805054, -0.09790241718292236, -0.2494749128818512, 0.005495312158018351, -0.011528147384524345, -0.04642925038933754, 0.2617741525173187, -0.005136243067681789, 0.04577023535966873, -0.2791192829608917};


#endif
