//Numpy array shape [8, 8]
//Min -5.328888416290
//Max 1.947047114372
//Number of zeros 0

#pragma once

model_default_t w4[64] = {0.0814549327, 0.1675906330, -0.2253587097, -0.6289141774, -0.2536179721, 1.5235034227, 0.1168793365, 1.9470471144, 0.2335364074, -0.1540987790, -1.2290626764, -2.7558097839, -3.3605256081, 0.2356941104, -0.0436352715, 0.2839433849, 1.0403347015, 0.0012701955, -0.1081911102, -0.4314320385, 1.0081222057, -0.0562359765, -0.6715621948, 0.0080775004, -0.1466309279, -0.3659619093, 0.4390058517, 0.5198140144, -0.4661860168, -1.0902603865, -0.2868930697, -0.9903944731, -1.9833717346, 0.0546726733, -0.4761470556, -0.0872997120, 1.0423398018, -0.1781862229, 0.9063262343, -0.1619109511, 0.0194459781, -0.0463629439, -1.7816250324, -0.4840527773, -0.2027093619, 0.2663831711, -0.5347241759, 0.0288430061, -0.0056371507, -0.4282417595, -0.0426875912, -5.3288884163, -1.7148914337, 0.5873136520, 0.0050365906, 0.8255595565, 0.0043681283, 0.7050796747, -1.6118232012, -1.0497224331, -0.7170663476, -0.0095910858, -0.0022571476, 0.0005925578};

