//Numpy array shape [8, 8]
//Min -0.620795905590
//Max 0.629550993443
//Number of zeros 48

#ifndef W4_H_
#define W4_H_

#ifndef __SYNTHESIS__
dense_node_2_weight_t w4[64];
#else
dense_node_2_weight_t w4[64] = {-0.0000000000, -0.0000000000, -0.4225299358, 0.0000000000, -0.0000000000, -0.0000000000, 0.0000000000, -0.0000000000, -0.0000000000, -0.0000000000, -0.3977020979, -0.0000000000, -0.0000000000, -0.5947691202, 0.3601816893, -0.0000000000, -0.0000000000, -0.0000000000, 0.0000000000, -0.6207959056, -0.0000000000, 0.4024924040, -0.0000000000, -0.0000000000, -0.5851944089, 0.5591388941, 0.6295509934, 0.4436067641, -0.0000000000, 0.0000000000, -0.0000000000, -0.0000000000, 0.0000000000, -0.0000000000, 0.0000000000, -0.0000000000, 0.0000000000, -0.0000000000, 0.0000000000, -0.0000000000, 0.0000000000, 0.0000000000, 0.5512049794, 0.0000000000, -0.0000000000, -0.0000000000, -0.0000000000, 0.0000000000, 0.0000000000, 0.0000000000, 0.3905552924, -0.0000000000, -0.0000000000, 0.0000000000, -0.4516704679, 0.5856557488, -0.0000000000, -0.0000000000, 0.0000000000, -0.0000000000, -0.0000000000, 0.0000000000, 0.5923107266, 0.5765851140};
#endif

#endif
