//Numpy array shape [8, 8]
//Min -0.343419373035
//Max 0.336213886738
//Number of zeros 0

#pragma once

model_default_t w4[64] = {0.0692483634, -0.2629688084, 0.1079191566, -0.1993952692, 0.1112505272, -0.1950619817, 0.1905732453, 0.1383666694, -0.0412786230, -0.2318340093, 0.1570300907, 0.1301890016, 0.1989159733, -0.0135702314, 0.1370348334, 0.1843065619, -0.2918639779, -0.1593326181, -0.3210968077, 0.3167419434, 0.0575604551, 0.1958426684, 0.2544974089, 0.2208772153, 0.1132260337, 0.0223797224, 0.0819974542, -0.2298171073, 0.0108482195, -0.1640652418, 0.2946180999, 0.1484230757, -0.0127257770, 0.0044311932, 0.0818815902, -0.1728186756, 0.1624836028, -0.2265800685, 0.0191471446, 0.3256775439, 0.2455375046, 0.0986497998, 0.1766991466, 0.1452054977, 0.0661810860, -0.3176251650, -0.3420864940, -0.0117593920, -0.1596995443, 0.2097425163, -0.0912897363, -0.1243821308, 0.1365634650, 0.3172983825, -0.2169919014, -0.1982140094, -0.1407733858, -0.3434193730, 0.1617752016, 0.3362138867, -0.3386688530, 0.2737001181, 0.1464186907, -0.3163695931};

