//Numpy array shape [8, 8]
//Min -0.663702368736
//Max 0.650222539902
//Number of zeros 0

#pragma once

model_default_t w4[64] = {0.5820543170, 0.0590699911, -0.0337321907, 0.1510704607, 0.1678919792, 0.2911122143, 0.2839906216, 0.3467579484, -0.1509623230, 0.5260401368, 0.6174188852, 0.4804459214, -0.3511880934, -0.0508809611, 0.3623824418, -0.0684459135, 0.0986421406, 0.1948535293, -0.1921651065, 0.3798650801, 0.1481874585, -0.3060110211, -0.4108920991, -0.1535369009, -0.1102748066, 0.3397152126, -0.3022184670, -0.0699806884, -0.1597668082, 0.1174740940, -0.1953121722, -0.0881615281, -0.3646501303, -0.2192742229, 0.1278682649, -0.3943253756, 0.5898147821, 0.2028276622, 0.0913907066, -0.6637023687, -0.1723664552, 0.6502225399, 0.3561028540, 0.0439672992, 0.5565631986, 0.3588747382, 0.2277802229, -0.5296285748, 0.2159497887, -0.2583962381, 0.3611203432, 0.2717714310, 0.2120487392, 0.0789756924, 0.4864712059, 0.0131343864, -0.0225718077, -0.2409889251, 0.1151458174, 0.0513106808, 0.5265132785, 0.1118993685, -0.0263122469, -0.2697077990};

