//Numpy array shape [8, 8]
//Min -1.183095574379
//Max 1.540537476540
//Number of zeros 0

#pragma once

model_default_t w4[64] = {0.0987200737, -0.7821590900, -0.0412033275, -0.1896649450, 0.1848480105, -0.5423944592, 0.7017278075, -0.5703215003, 0.4160737693, -0.3212453127, 0.5827640891, 0.3077216148, -0.0024588595, 0.3854543567, -0.3425649703, 1.2933242321, -0.3796693385, 0.2527898252, -0.2289967835, -0.6555625200, 0.4038728178, -0.0460918732, 0.1715842783, -0.3516783416, -0.6588205695, 0.4686396420, 0.2262762338, -0.0862787291, 0.6623448133, 0.0494295135, -0.1189905852, -0.3093496859, 1.0444215536, -0.5401542783, -0.6998227835, 0.3419182003, -0.5287100673, -0.0515724570, 0.0944716260, 0.2337093949, 0.4511749446, -0.2453280836, -0.4045977592, 0.2685065567, -0.6579779387, -0.3947559297, 0.2831656933, -0.3777669966, 0.2970719337, -0.0596451461, -0.1003307030, 0.3581906259, -0.3828717470, -0.1147957444, 0.7603250742, -0.0756076351, 1.3282870054, -0.2335689068, 0.6800174713, 1.5405374765, -1.1830955744, -0.0954507887, 0.5557720065, 0.7623521090};

