//Numpy array shape [8, 8]
//Min -8.741415023804
//Max 1.880742907524
//Number of zeros 0

#pragma once

model_default_t w6[64] = {0.3809688091, 0.2577287257, 0.1137658283, -0.2125305980, 0.1053683609, 0.1315976381, -0.4330008626, 0.4363784790, 0.4236283898, 0.5628414750, -0.0554665104, 1.8807429075, -0.8597247005, 0.6151661873, 0.4535073042, -8.7414150238, -0.1727640331, 0.7907794714, -0.0279029533, -3.4768021107, 0.2322005779, -0.3159150481, -1.5527831316, 0.9881047606, -0.7063534856, 0.5550847054, 0.3915577829, -1.3601658344, 0.1252237409, 0.2642955780, -0.6856160164, 0.9329747558, -0.2282366306, 0.7795600891, 0.1374796033, -0.3724031150, 0.1795326024, -0.1874456406, -0.1477637589, 1.0273123980, 0.0104848985, 0.0794787779, -1.4654945135, 0.1623808742, 0.6677718759, 0.0500546955, -0.0025398484, -0.6231432557, -0.1550436169, -0.5462671518, -0.0472114831, 0.1754061282, 0.0600818060, -0.2138232291, 0.4722093642, -0.2456744611, 0.2011200935, 0.2289724946, 0.0846464708, 0.8291657567, -0.4978073537, 0.2647946179, 0.2212527990, -1.7568999529};

